{"learner":{"attributes":{"scikit_learn":"{\"_estimator_type\": \"ranker\"}"},"feature_names":["similarity","bert_similarity","user_cat_enc","card_cat_enc","card_apr_scaled_inv","card_annual_fee_scaled_inv","card_joining_fee_scaled_inv"],"feature_types":["float","float","int","int","float","float","float"],"gradient_booster":{"model":{"cats":{"enc":[],"feature_segments":[],"sorted_idx":[]},"gbtree_model_param":{"num_parallel_tree":"1","num_trees":"300"},"iteration_indptr":[0,1,2,3,4,5,6,7,8,9,10,11,12,13,14,15,16,17,18,19,20,21,22,23,24,25,26,27,28,29,30,31,32,33,34,35,36,37,38,39,40,41,42,43,44,45,46,47,48,49,50,51,52,53,54,55,56,57,58,59,60,61,62,63,64,65,66,67,68,69,70,71,72,73,74,75,76,77,78,79,80,81,82,83,84,85,86,87,88,89,90,91,92,93,94,95,96,97,98,99,100,101,102,103,104,105,106,107,108,109,110,111,112,113,114,115,116,117,118,119,120,121,122,123,124,125,126,127,128,129,130,131,132,133,134,135,136,137,138,139,140,141,142,143,144,145,146,147,148,149,150,151,152,153,154,155,156,157,158,159,160,161,162,163,164,165,166,167,168,169,170,171,172,173,174,175,176,177,178,179,180,181,182,183,184,185,186,187,188,189,190,191,192,193,194,195,196,197,198,199,200,201,202,203,204,205,206,207,208,209,210,211,212,213,214,215,216,217,218,219,220,221,222,223,224,225,226,227,228,229,230,231,232,233,234,235,236,237,238,239,240,241,242,243,244,245,246,247,248,249,250,251,252,253,254,255,256,257,258,259,260,261,262,263,264,265,266,267,268,269,270,271,272,273,274,275,276,277,278,279,280,281,282,283,284,285,286,287,288,289,290,291,292,293,294,295,296,297,298,299,300],"tree_info":[0,0,0,0,0,0,0,0,0,0,0,0,0,0,0,0,0,0,0,0,0,0,0,0,0,0,0,0,0,0,0,0,0,0,0,0,0,0,0,0,0,0,0,0,0,0,0,0,0,0,0,0,0,0,0,0,0,0,0,0,0,0,0,0,0,0,0,0,0,0,0,0,0,0,0,0,0,0,0,0,0,0,0,0,0,0,0,0,0,0,0,0,0,0,0,0,0,0,0,0,0,0,0,0,0,0,0,0,0,0,0,0,0,0,0,0,0,0,0,0,0,0,0,0,0,0,0,0,0,0,0,0,0,0,0,0,0,0,0,0,0,0,0,0,0,0,0,0,0,0,0,0,0,0,0,0,0,0,0,0,0,0,0,0,0,0,0,0,0,0,0,0,0,0,0,0,0,0,0,0,0,0,0,0,0,0,0,0,0,0,0,0,0,0,0,0,0,0,0,0,0,0,0,0,0,0,0,0,0,0,0,0,0,0,0,0,0,0,0,0,0,0,0,0,0,0,0,0,0,0,0,0,0,0,0,0,0,0,0,0,0,0,0,0,0,0,0,0,0,0,0,0,0,0,0,0,0,0,0,0,0,0,0,0,0,0,0,0,0,0,0,0,0,0,0,0,0,0,0,0,0,0,0,0,0,0,0,0,0,0,0,0,0,0,0,0,0,0,0,0],"trees":[{"base_weights":[-8.3387464E-10,-3.8742366E-1,3.42578E-1,-6.9870085E-1,2.1327431E-1,2.1184328E-1,8.7804085E-1,-8.450311E-1,-6.1689365E-1,-8.9917175E-2,3.506694E-1,-7.0173986E-2,3.737117E-1,3.9032783E-2,4.4840008E-2,-4.617342E-2,-7.738721E-1,-7.6348084E-1,-5.7271236E-1,-1.5159415E-1,5.244603E-2,4.5004648E-1,2.0887728E-1,-1.5906155E-1,5.4127343E-2,7.0517033E-1,3.2832718E-1,-7.475846E-1,-4.7628876E-2,-4.344856E-2,-3.432627E-2,-6.231932E-1,-4.7225252E-1,8.277846E-2,-1.791689E-1,1.821025E-2,3.4008052E-2,2.5319037E-1,4.964454E-1,1.2994793E-1,5.215501E-1,-3.5036615E-1,-1.284358E-1,1.0966081E-1,-2.1567743E-1,7.826957E-1,4.8134235E-1,2.667523E-1,4.6913457E-1,-3.897906E-2,-3.0689767E-2,-3.261902E-2,-1.4721758E-2,-2.1028517E-2,-2.7223328E-2,3.7897058E-4,1.4559388E-2,8.957606E-4,-1.0060021E-2,1.2789393E-2,9.63124E-4,1.5748708E-2,-2.7966334E-3,1.8854147E-2,2.6027814E-2,-4.0709665E-3,8.917211E-3,3.074078E-2,1.7019656E-2,-1.9375933E-2,-1.3464636E-2,-8.991263E-3,-1.5920881E-3,3.3765116E-3,1.6296789E-2,-1.36235375E-2,-5.402475E-3,3.2194417E-2,4.5220442E-2,5.887765E-4,2.6933327E-2,1.6688226E-2,5.487935E-3,2.0699542E-2,3.3750184E-2],"categories":[],"categories_nodes":[],"categories_segments":[],"categories_sizes":[],"default_left":[0,0,0,0,0,0,0,0,0,0,0,0,0,0,0,0,0,0,0,0,0,0,0,0,0,0,0,0,0,0,0,0,0,0,0,0,0,0,0,0,0,0,0,0,0,0,0,0,0,0,0,0,0,0,0,0,0,0,0,0,0,0,0,0,0,0,0,0,0,0,0,0,0,0,0,0,0,0,0,0,0,0,0,0,0],"id":0,"left_children":[1,3,5,7,9,11,13,15,17,19,21,23,25,-1,-1,-1,27,29,31,33,35,37,39,41,43,45,47,49,-1,-1,-1,51,53,55,57,-1,59,61,63,65,67,69,71,73,75,77,79,81,83,-1,-1,-1,-1,-1,-1,-1,-1,-1,-1,-1,-1,-1,-1,-1,-1,-1,-1,-1,-1,-1,-1,-1,-1,-1,-1,-1,-1,-1,-1,-1,-1,-1,-1,-1,-1],"loss_changes":[9.43117E2,6.236814E2,2.638132E2,2.577539E1,4.7477615E1,1.3845781E2,6.5130615E-1,3.66687E0,8.712036E0,3.1336339E0,1.0953125E1,1.2236053E1,2.875357E1,0E0,0E0,0E0,1.2504883E0,2.0351257E0,5.231018E0,1.621676E0,6.1041903E-1,4.076538E0,7.9509525E0,3.7369251E0,6.9483585E0,3.634781E0,1.458493E1,1.1004791E0,0E0,0E0,0E0,6.7361145E0,1.1463699E0,4.1870016E-1,9.7090435E-1,0E0,3.3322102E-1,1.7326026E0,8.722153E-1,2.6819634E0,8.9160156E-1,1.6221142E-1,2.7641773E0,3.4763598E0,4.5483327E-1,2.2916107E0,1.6644316E0,1.2406387E1,5.5656815E0,0E0,0E0,0E0,0E0,0E0,0E0,0E0,0E0,0E0,0E0,0E0,0E0,0E0,0E0,0E0,0E0,0E0,0E0,0E0,0E0,0E0,0E0,0E0,0E0,0E0,0E0,0E0,0E0,0E0,0E0,0E0,0E0,0E0,0E0,0E0,0E0],"parents":[2147483647,0,0,1,1,2,2,3,3,4,4,5,5,6,6,7,7,8,8,9,9,10,10,11,11,12,12,16,16,17,17,18,18,19,19,20,20,21,21,22,22,23,23,24,24,25,25,26,26,27,27,31,31,32,32,33,33,34,34,36,36,37,37,38,38,39,39,40,40,41,41,42,42,43,43,44,44,45,45,46,46,47,47,48,48],"right_children":[2,4,6,8,10,12,14,16,18,20,22,24,26,-1,-1,-1,28,30,32,34,36,38,40,42,44,46,48,50,-1,-1,-1,52,54,56,58,-1,60,62,64,66,68,70,72,74,76,78,80,82,84,-1,-1,-1,-1,-1,-1,-1,-1,-1,-1,-1,-1,-1,-1,-1,-1,-1,-1,-1,-1,-1,-1,-1,-1,-1,-1,-1,-1,-1,-1,-1,-1,-1,-1,-1,-1],"split_conditions":[8.1403786E-1,8.1128895E-1,7.489469E-1,3.189366E-2,5.0885618E-2,5.9991363E-2,1.5631434E-2,-1.4213227E-2,4E0,4.0902525E-2,8.4203875E-1,3.3610646E-2,3E0,3.9032783E-2,4.4840008E-2,-4.617342E-2,1.1E1,4.6156767E-1,6.227707E-1,8.4203875E-1,3.535383E-1,8.860764E-2,1.9113745E-1,-4.4739734E-2,1.1E1,1.1E1,1.6256349E-1,6.016511E-1,-4.7628876E-2,-4.344856E-2,-3.432627E-2,7.8980625E-1,1.7017692E-1,3.4011435E-2,8.0036706E-1,1.821025E-2,9.2833444E-2,1.1E1,8.1508005E-1,3.642784E-1,8.930076E-1,9E0,8E0,8E0,5.4076865E-2,1.5397736E-1,9.967706E-2,1.1E1,2.535043E-1,-3.897906E-2,-3.0689767E-2,-3.261902E-2,-1.4721758E-2,-2.1028517E-2,-2.7223328E-2,3.7897058E-4,1.4559388E-2,8.957606E-4,-1.0060021E-2,1.2789393E-2,9.63124E-4,1.5748708E-2,-2.7966334E-3,1.8854147E-2,2.6027814E-2,-4.0709665E-3,8.917211E-3,3.074078E-2,1.7019656E-2,-1.9375933E-2,-1.3464636E-2,-8.991263E-3,-1.5920881E-3,3.3765116E-3,1.6296789E-2,-1.36235375E-2,-5.402475E-3,3.2194417E-2,4.5220442E-2,5.887765E-4,2.6933327E-2,1.6688226E-2,5.487935E-3,2.0699542E-2,3.3750184E-2],"split_indices":[5,4,4,1,1,1,0,0,3,1,4,1,3,0,0,0,2,5,5,4,5,1,1,0,2,2,1,5,0,0,0,4,4,1,6,0,6,2,4,5,4,2,2,2,0,0,1,2,1,0,0,0,0,0,0,0,0,0,0,0,0,0,0,0,0,0,0,0,0,0,0,0,0,0,0,0,0,0,0,0,0,0,0,0,0],"split_type":[0,0,0,0,0,0,0,0,0,0,0,0,0,0,0,0,0,0,0,0,0,0,0,0,0,0,0,0,0,0,0,0,0,0,0,0,0,0,0,0,0,0,0,0,0,0,0,0,0,0,0,0,0,0,0,0,0,0,0,0,0,0,0,0,0,0,0,0,0,0,0,0,0,0,0,0,0,0,0,0,0,0,0,0,0],"sum_hessian":[7.103915E3,3.3336912E3,3.7702239E3,2.1957217E3,1.1379696E3,3.0314763E3,7.3874744E2,7.8401215E2,1.4117095E3,3.5497888E2,7.829907E2,1.105672E3,1.9258043E3,1.2620326E2,6.125442E2,3.672364E2,4.167758E2,3.2317627E2,1.0885332E3,2.4763113E2,1.0734774E2,4.5907053E2,3.239202E2,6.44507E2,4.6116495E2,2.3018047E2,1.6956239E3,3.678487E2,4.8927082E1,1.3197437E2,1.9120189E2,7.210193E2,3.6751392E2,2.5856962E1,2.2177417E2,4.947072E0,1.02400665E2,8.87955E1,3.7027502E2,2.5976276E2,6.4157425E1,8.749937E1,5.570077E2,3.8293884E2,7.822611E1,1.691103E2,6.1070156E1,1.1817435E3,5.138803E2,2.9295877E2,7.488991E1,6.613225E2,5.9696766E1,2.1818619E2,1.4932774E2,1.9762535E1,6.094426E0,2.2317617E1,1.9945654E2,5.364812E0,9.703586E1,7.3988625E1,1.4806881E1,6.502152E1,3.052535E2,4.8269E1,2.1149376E2,4.0772568E1,2.3384857E1,5.741064E1,3.0088726E1,3.6301608E2,1.939916E2,3.2160257E2,6.133625E1,5.0203194E1,2.8022915E1,8.194571E1,8.7164604E1,6.7753997E0,5.4294758E1,8.274314E2,3.543122E2,4.076885E2,1.061918E2],"tree_param":{"num_deleted":"0","num_feature":"7","num_nodes":"85","size_leaf_vector":"1"}},{"base_weights":[6.137431E-9,-3.7856042E-1,1.780391E-1,-6.0104036E-1,4.883298E-2,-1.881783E-1,2.781995E-1,-7.406451E-1,-3.5187337E-1,-3.232078E-1,5.255269E-1,-4.8547726E-2,1.538702E-1,2.179221E-1,7.0176923E-1,-8.5731083E-1,-5.4358786E-1,-7.7835035E-1,-2.5480682E-1,-6.145972E-1,1.0569881E-2,3.2574467E-2,5.0231665E-1,2.544267E-1,-2.9395434E-1,1.5863326E-1,5.350821E-1,6.7331237E-1,4.2563584E-2,-5.133968E-1,-9.452539E-1,-8.76257E-1,-4.2311454E-1,-4.833474E-2,-1.553144E-1,-1.8197231E-1,-9.070912E-1,-7.549262E-2,-7.903324E-1,-2.3582084E-1,1.8729515E-1,5.145275E-1,3.4157974E-1,1.713567E-1,4.359698E-1,-3.9560458E-1,2.675678E-1,2.4740054E-1,-4.810227E-2,3.6564672E-1,6.439389E-1,3.8383897E-2,6.4615315E-1,-4.4298448E-2,-1.8762266E-2,9.191484E-3,-4.7465336E-2,-4.7898103E-2,-3.616604E-2,-1.5988687E-2,-4.8382845E-2,-2.5125667E-2,1.1048416E-2,-1.4017815E-2,8.084613E-3,-2.2899175E-2,-4.7463685E-2,-1.2877627E-2,1.08744E-3,-1.1873922E-2,-4.5559533E-2,5.516428E-3,-1.6187657E-2,1.1350799E-2,-3.153304E-2,2.4450561E-2,3.146723E-2,5.4480913E-3,2.0960586E-2,1.2673492E-2,-4.1239136E-3,1.7977895E-2,2.7750215E-2,-3.3034135E-2,-3.3968815E-3,1.7251901E-2,8.642723E-4,-4.5009637E-3,1.48599865E-2,-1.3614585E-2,3.582671E-3,3.3319672E-3,1.9250002E-2,3.978983E-2,2.3931056E-2,2.7620712E-2,3.502158E-2],"categories":[],"categories_nodes":[],"categories_segments":[],"categories_sizes":[],"default_left":[0,0,0,0,0,0,0,0,0,0,0,0,0,0,0,0,0,0,0,0,0,0,0,0,0,0,0,0,0,0,0,0,0,0,0,0,0,0,0,0,0,0,0,0,0,0,0,0,0,0,0,0,0,0,0,0,0,0,0,0,0,0,0,0,0,0,0,0,0,0,0,0,0,0,0,0,0,0,0,0,0,0,0,0,0,0,0,0,0,0,0,0,0,0,0,0,0],"id":1,"left_children":[1,3,5,7,9,11,13,15,17,19,21,-1,23,25,27,29,31,33,35,37,39,-1,41,43,45,47,49,51,-1,53,55,57,59,-1,61,63,65,67,69,71,73,75,77,79,81,83,85,87,89,91,93,-1,95,-1,-1,-1,-1,-1,-1,-1,-1,-1,-1,-1,-1,-1,-1,-1,-1,-1,-1,-1,-1,-1,-1,-1,-1,-1,-1,-1,-1,-1,-1,-1,-1,-1,-1,-1,-1,-1,-1,-1,-1,-1,-1,-1,-1],"loss_changes":[7.0740515E2,3.1926315E2,2.618978E2,7.654529E1,2.0417064E2,4.107905E2,1.4297415E2,3.2046997E1,3.2703247E1,6.2901535E1,1.1480103E0,0E0,4.817633E1,9.222301E1,2.3960571E0,2.6329346E1,2.0816422E1,1.7084312E1,3.066431E1,3.2651764E1,1.3211575E1,0E0,6.691208E-1,1.308836E1,1.1312386E1,7.593556E1,1.4016586E1,1.0189209E0,0E0,9.073032E0,3.3998413E0,1.0516663E0,2.1639305E1,0E0,4.720716E0,1.982446E1,7.9530716E-1,1.5279137E0,1.7175323E1,3.89359E0,5.8825226E0,8.585205E-1,5.5688334E-1,1.2536713E1,2.2868576E0,1.4429354E1,5.891051E-1,4.8665222E1,3.3408566E1,1.7368126E0,1.1396866E1,0E0,1.9806061E0,0E0,0E0,0E0,0E0,0E0,0E0,0E0,0E0,0E0,0E0,0E0,0E0,0E0,0E0,0E0,0E0,0E0,0E0,0E0,0E0,0E0,0E0,0E0,0E0,0E0,0E0,0E0,0E0,0E0,0E0,0E0,0E0,0E0,0E0,0E0,0E0,0E0,0E0,0E0,0E0,0E0,0E0,0E0,0E0],"parents":[2147483647,0,0,1,1,2,2,3,3,4,4,5,5,6,6,7,7,8,8,9,9,10,10,12,12,13,13,14,14,15,15,16,16,17,17,18,18,19,19,20,20,22,22,23,23,24,24,25,25,26,26,27,27,29,29,30,30,31,31,32,32,34,34,35,35,36,36,37,37,38,38,39,39,40,40,41,41,42,42,43,43,44,44,45,45,46,46,47,47,48,48,49,49,50,50,52,52],"right_children":[2,4,6,8,10,12,14,16,18,20,22,-1,24,26,28,30,32,34,36,38,40,-1,42,44,46,48,50,52,-1,54,56,58,60,-1,62,64,66,68,70,72,74,76,78,80,82,84,86,88,90,92,94,-1,96,-1,-1,-1,-1,-1,-1,-1,-1,-1,-1,-1,-1,-1,-1,-1,-1,-1,-1,-1,-1,-1,-1,-1,-1,-1,-1,-1,-1,-1,-1,-1,-1,-1,-1,-1,-1,-1,-1,-1,-1,-1,-1,-1,-1],"split_conditions":[6.8609364E-2,8.1508005E-1,8.1403786E-1,4.9927216E-2,5.299577E-1,8.1128895E-1,7.489469E-1,9E0,8.1403786E-1,5.0807152E-2,7E0,-4.8547726E-2,8.7447345E-1,2.2087829E-1,2.0346506E-1,6E0,-1.4213227E-2,8.1128895E-1,1.1E1,8.4203875E-1,9.187026E-1,3.2574467E-2,1.1E1,1.7544152E-1,2.125929E-1,1.1E1,2.3580304E-1,8.57203E-1,4.2563584E-2,5E0,4.2122998E-4,-3.0595535E-2,1.1E1,-4.833474E-2,1E1,9E0,3.917439E-1,1.4798138E-3,8.0036706E-1,5.572943E-2,6.244151E-2,8E0,1.4E1,1.1E1,2.4402057E-1,1.4E1,2E0,1.4869419E-1,1.4E1,8.9099085E-1,9.431441E-1,3.8383897E-2,9.283909E-1,-4.4298448E-2,-1.8762266E-2,9.191484E-3,-4.7465336E-2,-4.7898103E-2,-3.616604E-2,-1.5988687E-2,-4.8382845E-2,-2.5125667E-2,1.1048416E-2,-1.4017815E-2,8.084613E-3,-2.2899175E-2,-4.7463685E-2,-1.2877627E-2,1.08744E-3,-1.1873922E-2,-4.5559533E-2,5.516428E-3,-1.6187657E-2,1.1350799E-2,-3.153304E-2,2.4450561E-2,3.146723E-2,5.4480913E-3,2.0960586E-2,1.2673492E-2,-4.1239136E-3,1.7977895E-2,2.7750215E-2,-3.3034135E-2,-3.3968815E-3,1.7251901E-2,8.642723E-4,-4.5009637E-3,1.48599865E-2,-1.3614585E-2,3.582671E-3,3.3319672E-3,1.9250002E-2,3.978983E-2,2.3931056E-2,2.7620712E-2,3.502158E-2],"split_indices":[1,4,5,1,5,4,4,2,5,0,3,0,4,1,1,2,0,4,2,4,4,0,2,1,1,2,0,4,0,2,4,0,2,0,2,2,4,0,6,0,0,2,2,2,0,2,3,4,2,6,5,0,4,0,0,0,0,0,0,0,0,0,0,0,0,0,0,0,0,0,0,0,0,0,0,0,0,0,0,0,0,0,0,0,0,0,0,0,0,0,0,0,0,0,0,0,0],"split_type":[0,0,0,0,0,0,0,0,0,0,0,0,0,0,0,0,0,0,0,0,0,0,0,0,0,0,0,0,0,0,0,0,0,0,0,0,0,0,0,0,0,0,0,0,0,0,0,0,0,0,0,0,0,0,0,0,0,0,0,0,0,0,0,0,0,0,0,0,0,0,0,0,0,0,0,0,0,0,0,0,0,0,0,0,0,0,0,0,0,0,0,0,0,0,0,0,0],"sum_hessian":[1.049385E4,3.3563E3,7.13755E3,2.2070251E3,1.149275E3,1.5326884E3,5.6048613E3,1.4132365E3,7.9378864E2,6.4567395E2,5.0360104E2,4.6551685E2,1.0671715E3,4.9079365E3,6.969246E2,8.855846E2,5.276519E2,1.4586949E2,6.479191E2,3.4427716E2,3.0139682E2,7.414517E1,4.2945587E2,8.718372E2,1.9533429E2,4.1362246E3,7.7171204E2,5.9010535E2,1.0681925E2,1.8173227E2,7.038523E2,1.3861467E2,3.8903723E2,1.11585495E2,3.4283997E1,5.8398944E2,6.3929676E1,8.4988045E1,2.592891E2,1.2574646E2,1.7565036E2,3.9708884E2,3.2367027E1,5.99475E2,2.7236224E2,1.6564388E2,2.9690401E1,2.8935898E3,1.2426348E3,3.0356808E2,4.6814398E2,1.257875E2,4.6431784E2,4.769461E1,1.3403766E2,2.358721E0,7.014936E2,8.691644E1,5.1698227E1,3.2831778E2,6.071944E1,1.7656626E1,1.662737E1,4.541578E2,1.2983167E2,6.507109E0,5.742257E1,2.9015427E1,5.5972622E1,4.7046158E1,2.1224295E2,2.5420965E1,1.003255E2,1.6820462E2,7.445741E0,3.2919052E2,6.78983E1,8.700438E0,2.3666592E1,4.5295117E2,1.4652383E2,1.6832797E2,1.04034256E2,9.100542E1,7.4638466E1,2.2383432E1,7.306968E0,3.7203293E2,2.521557E3,4.3222028E2,8.1041455E2,1.8724154E1,2.8484393E2,2.4201762E2,2.2612634E2,1.7436572E2,2.8995212E2],"tree_param":{"num_deleted":"0","num_feature":"7","num_nodes":"97","size_leaf_vector":"1"}},{"base_weights":[3.4471328E-9,-2.2769131E-1,2.3952974E-1,-3.5484013E-1,9.986928E-2,-8.832474E-2,3.2358167E-1,-5.7345366E-1,-1.8538193E-1,-2.6698616E-1,4.9013853E-1,-4.701828E-2,1.955937E-1,2.7774665E-1,6.7988664E-1,-6.8950176E-1,-3.8432252E-1,-6.564477E-1,-1.3131653E-1,-3.8433623E-2,-6.28158E-1,2.6353103E-1,5.339422E-1,2.437648E-1,-2.604161E-1,5.0662637E-1,2.2188401E-1,6.5315145E-1,3.9276358E-2,-3.3831966E-1,-7.982103E-1,-9.079144E-1,-2.8852272E-1,-4.7013428E-2,-1.1873104E-1,-5.1872883E-2,-4.1008955E-1,-1.1503947E-2,-6.782347E-1,-4.469913E-2,-3.93791E-1,7.244982E-3,1.3384356E-2,5.57264E-1,3.695777E-1,1.7954426E-1,4.646651E-1,-4.948566E-1,4.2312855E-1,6.038456E-1,3.150313E-1,-2.6341831E-2,2.6134095E-1,6.303933E-1,3.77936E-2,-3.9707568E-2,-1.0467465E-2,-4.53028E-2,-2.360587E-2,-4.6053138E-2,-1.4207601E-2,-1.0009556E-2,-4.573071E-2,2.7409857E-3,-6.260195E-3,1.1703356E-2,-5.259039E-3,-2.7818484E-2,-3.0888277E-3,-7.1314685E-3,5.4887244E-3,-4.4926807E-2,-1.02157E-2,-1.0843732E-2,-3.64285E-2,2.6045663E-2,3.2918125E-2,1.5981326E-2,2.5684178E-2,2.0577492E-2,3.1803292E-3,1.12237455E-2,2.7019039E-2,-8.999703E-3,-3.0765492E-2,-7.128674E-3,2.4191983E-2,1.9657789E-2,4.3369677E-2,4.008919E-3,2.0163713E-2,3.2885228E-3,-2.035685E-2,4.6991175E-3,1.5658904E-2,3.2385323E-2,2.6456768E-2],"categories":[],"categories_nodes":[],"categories_segments":[],"categories_sizes":[],"default_left":[0,0,0,0,0,0,0,0,0,0,0,0,0,0,0,0,0,0,0,0,0,0,0,0,0,0,0,0,0,0,0,0,0,0,0,0,0,0,0,0,0,0,0,0,0,0,0,0,0,0,0,0,0,0,0,0,0,0,0,0,0,0,0,0,0,0,0,0,0,0,0,0,0,0,0,0,0,0,0,0,0,0,0,0,0,0,0,0,0,0,0,0,0,0,0,0,0],"id":2,"left_children":[1,3,5,7,9,11,13,15,17,19,21,-1,23,25,27,29,31,33,35,37,39,41,43,45,47,49,51,53,-1,55,57,59,61,-1,63,65,67,69,71,-1,73,-1,-1,75,77,79,81,83,85,87,89,91,93,95,-1,-1,-1,-1,-1,-1,-1,-1,-1,-1,-1,-1,-1,-1,-1,-1,-1,-1,-1,-1,-1,-1,-1,-1,-1,-1,-1,-1,-1,-1,-1,-1,-1,-1,-1,-1,-1,-1,-1,-1,-1,-1,-1],"loss_changes":[5.5175305E2,2.1604843E2,1.3588861E2,1.3831363E2,2.078838E2,2.4374341E2,6.390094E1,3.5535034E1,5.3558876E1,6.1771877E1,6.8418884E0,0E0,1.6670256E1,4.4366425E1,7.4827576E-1,3.827292E1,3.0963036E1,3.294641E1,4.1852276E1,7.910083E0,1.771936E1,1.8368721E-2,2.0500336E0,9.624138E0,1.1861953E1,1.2507736E1,2.7411682E1,3.7054443E-1,0E0,1.396562E1,2.6658997E1,5.241165E-1,2.9000187E1,0E0,9.221506E-2,2.2470625E1,2.132302E1,7.0447407E0,1.7525387E0,0E0,9.078146E0,0E0,0E0,1.5438843E0,3.835907E-1,1.4278021E1,2.6702652E0,1.9602203E0,7.252829E-1,2.4709595E1,4.7666187E0,1.3519562E1,2.0916275E1,1.8784332E-1,0E0,0E0,0E0,0E0,0E0,0E0,0E0,0E0,0E0,0E0,0E0,0E0,0E0,0E0,0E0,0E0,0E0,0E0,0E0,0E0,0E0,0E0,0E0,0E0,0E0,0E0,0E0,0E0,0E0,0E0,0E0,0E0,0E0,0E0,0E0,0E0,0E0,0E0,0E0,0E0,0E0,0E0,0E0],"parents":[2147483647,0,0,1,1,2,2,3,3,4,4,5,5,6,6,7,7,8,8,9,9,10,10,12,12,13,13,14,14,15,15,16,16,17,17,18,18,19,19,20,20,21,21,22,22,23,23,24,24,25,25,26,26,27,27,29,29,30,30,31,31,32,32,34,34,35,35,36,36,37,37,38,38,40,40,43,43,44,44,45,45,46,46,47,47,48,48,49,49,50,50,51,51,52,52,53,53],"right_children":[2,4,6,8,10,12,14,16,18,20,22,-1,24,26,28,30,32,34,36,38,40,42,44,46,48,50,52,54,-1,56,58,60,62,-1,64,66,68,70,72,-1,74,-1,-1,76,78,80,82,84,86,88,90,92,94,96,-1,-1,-1,-1,-1,-1,-1,-1,-1,-1,-1,-1,-1,-1,-1,-1,-1,-1,-1,-1,-1,-1,-1,-1,-1,-1,-1,-1,-1,-1,-1,-1,-1,-1,-1,-1,-1,-1,-1,-1,-1,-1,-1],"split_conditions":[1.0409699E-1,8.268745E-1,8.1403786E-1,5.709353E-2,5.299577E-1,8.1128895E-1,7.489469E-1,9E0,8.1403786E-1,8.0036706E-1,-2.5227813E-2,-4.701828E-2,8.930076E-1,3E0,2.0606956E-1,6E0,-1.4213227E-2,8.1128895E-1,1.1E1,1.1E1,5.0885618E-2,-7.2708175E-2,1.1E1,1.5E1,2.125929E-1,9E0,8.9099085E-1,1.5E1,3.9276358E-2,-4.0003103E-3,5.9494115E-2,8.115135E-2,1.1E1,-4.7013428E-2,2E0,8.892753E-1,9.847462E-2,7.346152E-2,8.115135E-2,-4.469913E-2,6.326918E-2,7.244982E-3,1.3384356E-2,7.119846E-2,9.608253E-2,9.2833444E-2,4.2694914E-1,1.0507185E-1,2.0985709E-1,2E0,1.6137327E-1,9.5575446E-1,1.14703216E-1,1.3E1,3.77936E-2,-3.9707568E-2,-1.0467465E-2,-4.53028E-2,-2.360587E-2,-4.6053138E-2,-1.4207601E-2,-1.0009556E-2,-4.573071E-2,2.7409857E-3,-6.260195E-3,1.1703356E-2,-5.259039E-3,-2.7818484E-2,-3.0888277E-3,-7.1314685E-3,5.4887244E-3,-4.4926807E-2,-1.02157E-2,-1.0843732E-2,-3.64285E-2,2.6045663E-2,3.2918125E-2,1.5981326E-2,2.5684178E-2,2.0577492E-2,3.1803292E-3,1.12237455E-2,2.7019039E-2,-8.999703E-3,-3.0765492E-2,-7.128674E-3,2.4191983E-2,1.9657789E-2,4.3369677E-2,4.008919E-3,2.0163713E-2,3.2885228E-3,-2.035685E-2,4.6991175E-3,1.5658904E-2,3.2385323E-2,2.6456768E-2],"split_indices":[1,4,5,0,5,4,4,2,5,6,1,0,4,3,0,2,0,4,2,2,1,1,2,2,1,2,6,2,0,1,1,1,2,0,2,5,0,0,1,0,1,0,0,1,0,6,6,1,0,3,1,5,0,2,0,0,0,0,0,0,0,0,0,0,0,0,0,0,0,0,0,0,0,0,0,0,0,0,0,0,0,0,0,0,0,0,0,0,0,0,0,0,0,0,0,0,0],"split_type":[0,0,0,0,0,0,0,0,0,0,0,0,0,0,0,0,0,0,0,0,0,0,0,0,0,0,0,0,0,0,0,0,0,0,0,0,0,0,0,0,0,0,0,0,0,0,0,0,0,0,0,0,0,0,0,0,0,0,0,0,0,0,0,0,0,0,0,0,0,0,0,0,0,0,0,0,0,0,0,0,0,0,0,0,0,0,0,0,0,0,0,0,0,0,0,0,0],"sum_hessian":[1.0114698E4,5.1855176E3,4.929181E3,3.7354492E3,1.4500684E3,1.0058181E3,3.923363E3,1.6301072E3,2.105342E3,7.4761847E2,7.0244995E2,2.5081346E2,7.550047E2,3.4777632E3,4.455997E2,1.0085994E3,6.2150775E2,2.1561046E2,1.8897316E3,4.5855035E2,2.8906808E2,1.1492591E2,5.8752405E2,6.8329E2,7.171467E1,6.807074E2,2.797056E3,3.6133646E2,8.426323E1,2.393839E2,7.692156E2,9.481597E1,5.266918E2,1.406324E2,7.497806E1,1.4715586E3,4.1817294E2,4.4100607E2,1.7544273E1,1.341254E2,1.5494269E2,5.103924E0,1.0982199E2,5.124254E2,7.5098625E1,5.307904E2,1.524996E2,5.3605293E1,1.8109373E1,4.5014368E2,2.3056374E2,3.8367377E2,2.413382E3,3.0164325E2,5.9693214E1,5.1655514E1,1.877284E2,5.767078E2,1.925077E2,9.239181E1,2.424159E0,4.6272797E2,6.3963837E1,2.4273226E0,7.2550735E1,2.3070132E2,1.2408573E3,2.9407407E2,1.2409888E2,2.1181601E2,2.2919006E2,1.1365208E1,6.179066E0,1.0245004E2,5.2492645E1,3.8143137E2,1.3099405E2,5.8157547E1,1.6941078E1,1.7601431E2,3.547761E2,3.750104E1,1.1499856E2,1.5522933E1,3.808236E1,1.6244518E0,1.648492E1,2.5154292E2,1.9860074E2,6.349214E1,1.670716E2,3.0960846E2,7.406532E1,5.714007E2,1.8419813E3,2.5299028E2,4.8652966E1],"tree_param":{"num_deleted":"0","num_feature":"7","num_nodes":"97","size_leaf_vector":"1"}},{"base_weights":[-9.22352E-9,-2.0427792E-1,1.694775E-1,-5.3514963E-1,-7.0447214E-2,-7.447208E-2,2.3680653E-1,-4.650083E-2,-2.9174393E-1,-2.2143058E-1,4.0127522E-1,-4.5790266E-2,1.6735469E-1,1.6727257E-1,5.31014E-1,-5.406863E-1,-1.6282566E-1,-4.329629E-1,-8.38726E-2,1.2919642E-1,4.4585967E-1,8.7980844E-2,4.172522E-1,-2.7999694E-3,3.029637E-1,2.6662776E-1,5.845411E-1,-2.777723E-1,-7.233931E-1,-1.2809327E-1,-7.878141E-1,-6.214531E-1,-2.2505894E-1,-1.7800344E-2,-6.2666845E-1,-1.7333109E-2,1.4155114E-1,4.0457362E-1,4.9771675E-1,1.2103302E-1,-2.7123573E-1,3.6461118E-1,2.843183E-2,3.2721865E-1,-4.8765928E-2,2.3449865E-1,5.04319E-1,1.967975E-2,3.9974836E-1,4.885948E-1,6.17332E-1,-1.6241187E-2,-1.3659351E-3,-1.2376192E-2,-4.39382E-2,-9.495604E-3,9.081614E-3,-4.257422E-2,-1.4779906E-2,-7.705904E-3,-4.182918E-2,-2.872606E-2,-2.2235624E-3,-3.0730949E-3,1.2770593E-2,-3.4186497E-2,-1.0584894E-2,-1.0860537E-2,7.95305E-3,2.1409085E-2,1.5382183E-2,2.4144689E-2,3.249657E-2,8.867365E-3,4.390877E-4,6.362104E-3,-3.1320434E-2,6.087634E-3,1.9521255E-2,-2.9575427E-3,1.728546E-2,1.6619189E-3,-1.1225952E-2,1.7138708E-2,4.511965E-3,3.29755E-2,1.5231236E-2,1.8710079E-2,-5.2848214E-4,3.0005744E-2,1.2260939E-2,2.8267086E-2,4.861849E-3,2.6799113E-2,3.2739367E-2],"categories":[],"categories_nodes":[],"categories_segments":[],"categories_sizes":[],"default_left":[0,0,0,0,0,0,0,0,0,0,0,0,0,0,0,0,0,0,0,0,0,0,0,0,0,0,0,0,0,0,0,0,0,0,0,0,0,0,0,0,0,0,0,0,0,0,0,0,0,0,0,0,0,0,0,0,0,0,0,0,0,0,0,0,0,0,0,0,0,0,0,0,0,0,0,0,0,0,0,0,0,0,0,0,0,0,0,0,0,0,0,0,0,0,0],"id":3,"left_children":[1,3,5,7,9,11,13,-1,15,17,19,-1,21,23,25,27,29,31,33,35,37,39,41,43,45,47,49,51,53,55,57,59,61,63,65,-1,67,69,71,73,75,77,-1,79,81,83,85,87,89,91,93,-1,-1,-1,-1,-1,-1,-1,-1,-1,-1,-1,-1,-1,-1,-1,-1,-1,-1,-1,-1,-1,-1,-1,-1,-1,-1,-1,-1,-1,-1,-1,-1,-1,-1,-1,-1,-1,-1,-1,-1,-1,-1,-1,-1],"loss_changes":[3.4173917E2,1.9816124E2,8.863066E1,1.2360751E2,2.2715015E2,2.3772993E2,8.641223E1,0E0,2.5548912E1,7.025627E1,9.323448E0,0E0,1.7970684E1,7.896001E1,1.1276611E1,1.2870308E1,1.1354374E1,3.715396E1,5.2531185E1,6.9748044E-1,1.2203674E0,8.228298E0,1.5345154E0,2.3064342E1,2.6117844E1,4.5239687E0,1.8094177E0,1.3249912E0,1.1606483E1,9.629494E0,6.1291504E-1,4.9996323E1,2.863189E1,1.5607933E1,3.6190872E0,0E0,7.1430945E-1,7.265167E-1,3.4048462E-1,3.998578E0,8.354849E0,9.8666954E-1,0E0,1.3484173E0,1.924091E1,2.2181747E1,1.4737724E1,5.330396E-1,2.6245823E0,5.222393E0,1.1612244E0,0E0,0E0,0E0,0E0,0E0,0E0,0E0,0E0,0E0,0E0,0E0,0E0,0E0,0E0,0E0,0E0,0E0,0E0,0E0,0E0,0E0,0E0,0E0,0E0,0E0,0E0,0E0,0E0,0E0,0E0,0E0,0E0,0E0,0E0,0E0,0E0,0E0,0E0,0E0,0E0,0E0,0E0,0E0,0E0],"parents":[2147483647,0,0,1,1,2,2,3,3,4,4,5,5,6,6,8,8,9,9,10,10,12,12,13,13,14,14,15,15,16,16,17,17,18,18,19,19,20,20,21,21,22,22,23,23,24,24,25,25,26,26,27,27,28,28,29,29,30,30,31,31,32,32,33,33,34,34,36,36,37,37,38,38,39,39,40,40,41,41,43,43,44,44,45,45,46,46,47,47,48,48,49,49,50,50],"right_children":[2,4,6,8,10,12,14,-1,16,18,20,-1,22,24,26,28,30,32,34,36,38,40,42,44,46,48,50,52,54,56,58,60,62,64,66,-1,68,70,72,74,76,78,-1,80,82,84,86,88,90,92,94,-1,-1,-1,-1,-1,-1,-1,-1,-1,-1,-1,-1,-1,-1,-1,-1,-1,-1,-1,-1,-1,-1,-1,-1,-1,-1,-1,-1,-1,-1,-1,-1,-1,-1,-1,-1,-1,-1,-1,-1,-1,-1,-1,-1],"split_conditions":[9.5513985E-2,8.1403786E-1,8.1403786E-1,8.1128895E-1,7.358888E-1,8.1128895E-1,7.257793E-1,-4.650083E-2,4.9927216E-2,5.9991363E-2,7.489469E-1,-4.5790266E-2,2.086071E-1,1.5427184E-1,8.1587714E-1,8.4203875E-1,1.1E1,9E0,1.1E1,2E0,3.7601016E-2,8.7447345E-1,2.7482417E-1,2E0,2.3213452E-1,1.14703216E-1,7.358888E-1,4.5152288E-2,8.0036706E-1,8E0,9.5513895E-2,6E0,7.646368E-3,9E0,1.0050858E-1,-1.7333109E-2,5.2202884E-2,3.4011383E-2,9.8525697E-1,1.1E1,1.0507185E-1,1.9113745E-1,2.843183E-2,7.728808E-2,6.120472E-1,1.1E1,5E0,5E0,1.4216772E-1,1E1,1.129085E-1,-1.6241187E-2,-1.3659351E-3,-1.2376192E-2,-4.39382E-2,-9.495604E-3,9.081614E-3,-4.257422E-2,-1.4779906E-2,-7.705904E-3,-4.182918E-2,-2.872606E-2,-2.2235624E-3,-3.0730949E-3,1.2770593E-2,-3.4186497E-2,-1.0584894E-2,-1.0860537E-2,7.95305E-3,2.1409085E-2,1.5382183E-2,2.4144689E-2,3.249657E-2,8.867365E-3,4.390877E-4,6.362104E-3,-3.1320434E-2,6.087634E-3,1.9521255E-2,-2.9575427E-3,1.728546E-2,1.6619189E-3,-1.1225952E-2,1.7138708E-2,4.511965E-3,3.29755E-2,1.5231236E-2,1.8710079E-2,-5.2848214E-4,3.0005744E-2,1.2260939E-2,2.8267086E-2,4.861849E-3,2.6799113E-2,3.2739367E-2],"split_indices":[1,5,5,4,4,4,4,0,1,1,4,0,0,1,5,4,2,2,2,2,1,4,1,3,0,0,4,0,6,2,0,2,1,2,0,0,0,0,4,2,1,1,0,0,4,2,3,2,1,2,0,0,0,0,0,0,0,0,0,0,0,0,0,0,0,0,0,0,0,0,0,0,0,0,0,0,0,0,0,0,0,0,0,0,0,0,0,0,0,0,0,0,0,0,0],"split_type":[0,0,0,0,0,0,0,0,0,0,0,0,0,0,0,0,0,0,0,0,0,0,0,0,0,0,0,0,0,0,0,0,0,0,0,0,0,0,0,0,0,0,0,0,0,0,0,0,0,0,0,0,0,0,0,0,0,0,0,0,0,0,0,0,0,0,0,0,0,0,0,0,0,0,0,0,0,0,0,0,0,0,0,0,0,0,0,0,0,0,0,0,0,0,0],"sum_hessian":[9.869004E3,4.4749565E3,5.394047E3,1.2878892E3,3.1870674E3,1.1667003E3,4.2273467E3,4.900617E2,7.9782745E2,2.4147222E3,7.723453E2,2.598558E2,9.0684454E2,3.4205024E3,8.068441E2,2.7111255E2,5.267149E2,9.506678E2,1.4640543E3,1.09290764E2,6.630545E2,6.892676E2,2.1757695E2,1.5183777E3,1.9021248E3,1.368553E2,6.6998883E2,1.1219085E2,1.589217E2,5.0012643E2,2.6588503E1,4.9757047E2,4.5309732E2,1.306101E3,1.579534E2,2.0809522E0,1.0720981E2,3.7405338E2,2.8900113E2,6.317978E2,5.74698E1,1.6396854E2,5.360841E1,1.8488107E2,1.3334966E3,1.4210891E3,4.8103558E2,4.8336163E1,8.8519135E1,1.7470428E2,4.9528455E2,9.41975E1,1.7993343E1,3.9754597E1,1.1916711E2,4.1723618E2,8.289025E1,2.28968E1,3.6917033E0,1.573879E2,3.401826E2,1.5362679E2,2.9947052E2,1.1268036E3,1.7929741E2,1.3828986E2,1.9663532E1,4.458287E0,1.02751526E2,2.980448E2,7.600858E1,2.6715726E2,2.184386E1,4.2034097E2,2.1145683E2,2.7386223E1,3.0083578E1,1.630325E1,1.476653E2,8.34335E0,1.7653772E2,9.0980383E2,4.2369278E2,8.110044E2,6.100848E2,2.6938358E2,2.1165201E2,2.9061098E0,4.5430054E1,3.7287643E1,5.1231487E1,1.456894E2,2.901488E1,1.6097365E2,3.3431088E2],"tree_param":{"num_deleted":"0","num_feature":"7","num_nodes":"95","size_leaf_vector":"1"}},{"base_weights":[-9.4341E-9,-2.3649427E-1,1.3740613E-1,-5.5181503E-1,-1.08935125E-1,6.960803E-2,3.5609555E-1,-4.5367792E-2,-3.2196194E-1,-2.498141E-1,3.8441625E-1,2.1940768E-2,3.8789994E-1,1.2104032E-1,4.136808E-1,-6.1583734E-1,-1.4534333E-1,-8.902516E-1,-1.8590918E-1,3.0622783E-1,4.63784E-1,1.1308486E-1,-1.6215818E-1,-3.157697E-1,5.379238E-1,-4.363844E-2,3.3691645E-1,3.768601E-1,7.3245996E-1,-3.1514096E-1,-8.2857025E-1,-4.083398E-2,-1.3280097E-1,-4.4951793E-2,-5.500266E-1,-1.5963995E-1,-8.3810157E-1,3.292411E-1,1.1356152E-2,3.8181767E-1,5.2130073E-1,-3.7998655E-1,1.4700647E-1,-8.2162714E-1,-9.690006E-2,-7.78135E-1,-1.422718E-1,6.8030417E-1,5.1818013E-1,2.872591E-1,2.5376527E-2,3.487825E-1,6.710219E-1,7.7391297E-1,5.335794E-1,-3.640648E-2,-9.937605E-3,-3.0765448E-2,-4.4396993E-2,-1.7658061E-3,-1.0124377E-2,9.8746745E-3,-3.5926778E-2,-1.217292E-2,4.423684E-3,-4.5321494E-2,-1.7239397E-2,1.2803616E-2,1.709838E-2,2.0193849E-2,7.8631975E-3,2.3864614E-2,3.442827E-2,-4.379185E-2,-1.1682187E-2,3.13212E-2,5.8086826E-3,-4.495142E-2,-1.6408699E-2,-2.2865498E-2,2.9684128E-3,-7.299494E-3,-4.04544E-2,-3.0019088E-2,-2.999352E-3,4.178458E-2,2.317188E-2,3.16036E-2,2.4096465E-2,1.5384602E-2,1.5343059E-3,1.1409051E-2,1.9794626E-2,2.798362E-2,3.6478437E-2,2.1304555E-2,3.9419573E-2,8.800247E-3,2.825061E-2],"categories":[],"categories_nodes":[],"categories_segments":[],"categories_sizes":[],"default_left":[0,0,0,0,0,0,0,0,0,0,0,0,0,0,0,0,0,0,0,0,0,0,0,0,0,0,0,0,0,0,0,0,0,0,0,0,0,0,0,0,0,0,0,0,0,0,0,0,0,0,0,0,0,0,0,0,0,0,0,0,0,0,0,0,0,0,0,0,0,0,0,0,0,0,0,0,0,0,0,0,0,0,0,0,0,0,0,0,0,0,0,0,0,0,0,0,0,0,0],"id":4,"left_children":[1,3,5,7,9,11,13,-1,15,17,19,21,23,25,27,29,31,33,35,37,39,41,43,45,47,-1,49,51,53,55,57,-1,59,-1,61,63,65,67,-1,69,71,73,75,77,79,81,83,85,87,89,-1,91,93,95,97,-1,-1,-1,-1,-1,-1,-1,-1,-1,-1,-1,-1,-1,-1,-1,-1,-1,-1,-1,-1,-1,-1,-1,-1,-1,-1,-1,-1,-1,-1,-1,-1,-1,-1,-1,-1,-1,-1,-1,-1,-1,-1,-1,-1],"loss_changes":[3.1620648E2,1.4377289E2,9.1229645E1,8.3858215E1,1.7713783E2,7.129181E1,1.966185E1,0E0,3.245159E1,8.095421E1,3.371643E0,6.861944E1,6.478286E1,6.2077114E1,1.3448959E1,1.4774002E1,3.1998854E0,4.2160034E-2,3.0764587E1,4.4981766E-1,1.1164742E0,4.5803223E1,5.8200996E1,8.568208E0,1.0667114E0,0E0,1.8647518E0,8.440704E0,5.7649994E-1,4.6139526E0,1.1887512E0,0E0,2.6211839E0,0E0,1.0356824E0,3.610123E1,2.0332832E0,1.1822319E-1,0E0,5.249691E-1,8.5824203E-1,1.2590979E1,3.776576E1,4.3573227E0,6.949472E1,4.5511246E-1,2.9756045E0,1.5768852E0,1.5432892E0,9.6627426E-1,0E0,5.368828E0,1.8122482E-1,1.5304184E-1,1.6941357E-1,0E0,0E0,0E0,0E0,0E0,0E0,0E0,0E0,0E0,0E0,0E0,0E0,0E0,0E0,0E0,0E0,0E0,0E0,0E0,0E0,0E0,0E0,0E0,0E0,0E0,0E0,0E0,0E0,0E0,0E0,0E0,0E0,0E0,0E0,0E0,0E0,0E0,0E0,0E0,0E0,0E0,0E0,0E0,0E0],"parents":[2147483647,0,0,1,1,2,2,3,3,4,4,5,5,6,6,8,8,9,9,10,10,11,11,12,12,13,13,14,14,15,15,16,16,17,17,18,18,19,19,20,20,21,21,22,22,23,23,24,24,26,26,27,27,28,28,29,29,30,30,32,32,34,34,35,35,36,36,37,37,39,39,40,40,41,41,42,42,43,43,44,44,45,45,46,46,47,47,48,48,49,49,51,51,52,52,53,53,54,54],"right_children":[2,4,6,8,10,12,14,-1,16,18,20,22,24,26,28,30,32,34,36,38,40,42,44,46,48,-1,50,52,54,56,58,-1,60,-1,62,64,66,68,-1,70,72,74,76,78,80,82,84,86,88,90,-1,92,94,96,98,-1,-1,-1,-1,-1,-1,-1,-1,-1,-1,-1,-1,-1,-1,-1,-1,-1,-1,-1,-1,-1,-1,-1,-1,-1,-1,-1,-1,-1,-1,-1,-1,-1,-1,-1,-1,-1,-1,-1,-1,-1,-1,-1,-1],"split_conditions":[7.140911E-2,8.1403786E-1,1.9745427E-1,8.1128895E-1,7.489469E-1,8.4203875E-1,8.1403786E-1,-4.5367792E-2,4.6525378E-2,5.6527643E-3,1.3260279E-2,1.1E1,5.299577E-1,8.1128895E-1,3.1042904E-1,8.4203875E-1,2E0,7.919718E-3,1.1E1,7.029392E-3,8.7447345E-1,1.9460826E-1,9.69927E-2,4E0,8.523424E-1,-4.363844E-2,2.779179E-1,7.489469E-1,9.955949E-1,8.0103497E-4,8.0036706E-1,-4.083398E-2,8.30308E-1,-4.4951793E-2,9.530569E-1,9E0,9.244195E-2,8.7447345E-1,1.1356152E-2,1.1E1,8E0,8.1403786E-1,2.0513901E-1,1.17769964E-1,1.4E1,7.5317964E-2,9.5513895E-2,1.310158E-1,8.57203E-1,9.5282227E-1,2.5376527E-2,1.9910514E-1,8E0,3.9764112E-1,2.4316262E-1,-3.640648E-2,-9.937605E-3,-3.0765448E-2,-4.4396993E-2,-1.7658061E-3,-1.0124377E-2,9.8746745E-3,-3.5926778E-2,-1.217292E-2,4.423684E-3,-4.5321494E-2,-1.7239397E-2,1.2803616E-2,1.709838E-2,2.0193849E-2,7.8631975E-3,2.3864614E-2,3.442827E-2,-4.379185E-2,-1.1682187E-2,3.13212E-2,5.8086826E-3,-4.495142E-2,-1.6408699E-2,-2.2865498E-2,2.9684128E-3,-7.299494E-3,-4.04544E-2,-3.0019088E-2,-2.999352E-3,4.178458E-2,2.317188E-2,3.16036E-2,2.4096465E-2,1.5384602E-2,1.5343059E-3,1.1409051E-2,1.9794626E-2,2.798362E-2,3.6478437E-2,2.1304555E-2,3.9419573E-2,8.800247E-3,2.825061E-2],"split_indices":[0,5,1,4,4,4,5,0,1,1,0,2,5,4,0,4,2,0,2,0,4,4,0,3,5,0,0,4,6,1,6,0,6,0,5,2,1,4,0,2,2,5,4,1,2,0,0,1,4,4,0,0,2,4,1,0,0,0,0,0,0,0,0,0,0,0,0,0,0,0,0,0,0,0,0,0,0,0,0,0,0,0,0,0,0,0,0,0,0,0,0,0,0,0,0,0,0,0,0],"split_type":[0,0,0,0,0,0,0,0,0,0,0,0,0,0,0,0,0,0,0,0,0,0,0,0,0,0,0,0,0,0,0,0,0,0,0,0,0,0,0,0,0,0,0,0,0,0,0,0,0,0,0,0,0,0,0,0,0,0,0,0,0,0,0,0,0,0,0,0,0,0,0,0,0,0,0,0,0,0,0,0,0,0,0,0,0,0,0,0,0,0,0,0,0,0,0,0,0,0,0],"sum_hessian":[9.728699E3,3.5749731E3,6.153726E3,1.0287129E3,2.5462603E3,4.6984355E3,1.4552906E3,4.0276358E2,6.259493E2,1.981054E3,5.652063E2,4.0873801E3,6.110554E2,2.8697968E2,1.1683109E3,2.3404137E2,3.9190793E2,1.7856761E2,1.8024863E3,2.871658E2,2.780405E2,2.7341414E3,1.3532388E3,1.071897E2,5.0386572E2,5.067034E1,2.3630934E2,1.0492941E3,1.19016815E2,9.800019E1,1.3604118E2,6.0117598E0,3.8589618E2,1.724721E2,6.095502E0,1.7338928E3,6.859354E1,2.2000081E2,6.7164986E1,1.1780153E2,1.6023897E2,1.7533517E2,2.5588062E3,1.2080883E2,1.2324299E3,2.829626E1,7.889343E1,5.728698E1,4.4657874E2,1.8511513E2,5.119421E1,9.598615E2,8.94326E1,9.609603E1,2.2920784E1,2.0390724E1,7.760946E1,3.209976E1,1.0394143E2,1.6149162E2,2.2440456E2,1.0896621E0,5.00584E0,1.2960697E3,4.3782306E2,5.9513023E1,9.080512E0,3.5725296E1,1.8427551E2,1.06537155E2,1.1264371E1,1.299118E2,3.032717E1,3.881939E1,1.365158E2,1.5345335E2,2.4053528E3,1.0371807E2,1.7090754E1,3.721634E2,8.6026654E2,1.5876893E0,2.6708572E1,1.1054199E1,6.783924E1,3.1711699E1,2.557528E1,1.0385475E2,3.42724E2,1.7127582E2,1.3839306E1,2.7126572E2,6.885958E2,3.445759E1,5.4975014E1,5.0562806E0,9.103975E1,2.3853087E0,2.0535477E1],"tree_param":{"num_deleted":"0","num_feature":"7","num_nodes":"99","size_leaf_vector":"1"}},{"base_weights":[-4.0327532E-9,-1.654338E-1,1.8326263E-1,-2.7464035E-1,1.0344923E-1,-6.334294E-2,2.557439E-1,-5.096374E-1,-1.10224225E-1,-1.9591749E-1,3.962802E-1,-4.379628E-2,5.3801905E-2,1.1133022E-1,3.1048772E-1,-8.670719E-1,-4.2239663E-1,-7.029999E-1,-4.6600882E-2,-7.1590775E-1,-5.268084E-2,2.1580003E-1,4.330244E-1,-1.6769278E-1,2.1411599E-1,-1.8578349E-1,1.9492334E-1,2.6317352E-1,5.5903375E-1,-1.8729087E-2,-8.8392067E-1,-5.5457413E-1,-2.0488487E-1,-4.4319954E-2,-1.13662824E-1,1.7884219E-2,-4.7393757E-1,-2.6225305E-1,-4.1996706E-2,5.4439873E-2,-1.6939233E-1,1.848477E-1,3.083652E-1,3.4977534E-1,4.570171E-1,-7.8684574E-1,-1.10597655E-1,4.454458E-1,1.1492216E-1,-4.3900717E-2,1.7662716E-1,-2.2854333E-1,2.3918436E-1,2.0996866E-1,4.486318E-1,5.293391E-1,7.183667E-1,-4.478939E-2,-1.602174E-2,-7.186064E-3,-3.4310807E-2,-5.3035794E-3,-4.432718E-2,-3.9773013E-2,-9.961692E-4,-9.493793E-3,3.0935288E-3,-4.3375295E-2,-1.5785454E-2,-2.9558206E-2,6.2330556E-4,3.6858988E-3,-2.0316526E-2,-5.0714924E-3,-1.9557904E-2,9.614533E-3,5.7727834E-3,1.5976746E-2,5.8957343E-3,2.2934642E-2,1.6680537E-2,2.1306207E-2,2.6411194E-2,-2.2282427E-2,-4.1569825E-2,-1.4366595E-3,-1.7182656E-2,2.7710188E-2,-8.635885E-3,8.110025E-4,2.1951577E-2,5.662977E-3,2.419904E-2,-4.154637E-3,-3.8197562E-2,1.2924517E-2,-4.8863706E-3,1.43402545E-2,2.783314E-3,3.9363276E-2,2.0226259E-2,2.4954498E-2,3.3068925E-2,2.3564002E-2,3.7306696E-2],"categories":[],"categories_nodes":[],"categories_segments":[],"categories_sizes":[],"default_left":[0,0,0,0,0,0,0,0,0,0,0,0,0,0,0,0,0,0,0,0,0,0,0,0,0,0,0,0,0,0,0,0,0,0,0,0,0,0,0,0,0,0,0,0,0,0,0,0,0,0,0,0,0,0,0,0,0,0,0,0,0,0,0,0,0,0,0,0,0,0,0,0,0,0,0,0,0,0,0,0,0,0,0,0,0,0,0,0,0,0,0,0,0,0,0,0,0,0,0,0,0,0,0,0,0],"id":5,"left_children":[1,3,5,7,9,11,13,15,17,19,21,-1,23,25,27,29,31,33,35,37,39,41,43,45,47,49,51,53,55,-1,57,59,61,-1,63,65,67,69,-1,71,73,75,77,79,81,83,85,87,89,-1,91,93,95,97,99,101,103,-1,-1,-1,-1,-1,-1,-1,-1,-1,-1,-1,-1,-1,-1,-1,-1,-1,-1,-1,-1,-1,-1,-1,-1,-1,-1,-1,-1,-1,-1,-1,-1,-1,-1,-1,-1,-1,-1,-1,-1,-1,-1,-1,-1,-1,-1,-1,-1],"loss_changes":[2.9169543E2,1.4850906E2,8.1606186E1,1.3889636E2,1.281774E2,9.882312E1,2.7856796E1,4.5788544E1,7.9816025E1,5.3830112E1,4.807472E0,0E0,3.2273197E1,2.4160576E1,2.9930359E1,2.0705872E0,3.414781E1,2.2072075E1,5.2726204E1,8.56369E0,7.1119666E0,3.0687332E-1,1.0645828E0,1.3408343E1,1.204418E1,5.3788525E1,1.4271885E1,2.1125671E1,1.5507584E0,0E0,1.579483E0,3.9960663E1,3.0353287E1,0E0,3.1692066E0,1.5210968E1,1.534848E1,3.1673658E0,0E0,2.6680288E0,4.061818E0,2.8245449E-2,2.6839972E-2,9.594536E-2,8.145447E-1,1.1694145E-1,6.680919E0,1.070764E1,1.1837836E1,0E0,2.6943736E0,5.5662284E0,4.4953537E0,1.981913E1,6.8289413E0,1.0591354E0,6.903267E-2,0E0,0E0,0E0,0E0,0E0,0E0,0E0,0E0,0E0,0E0,0E0,0E0,0E0,0E0,0E0,0E0,0E0,0E0,0E0,0E0,0E0,0E0,0E0,0E0,0E0,0E0,0E0,0E0,0E0,0E0,0E0,0E0,0E0,0E0,0E0,0E0,0E0,0E0,0E0,0E0,0E0,0E0,0E0,0E0,0E0,0E0,0E0,0E0],"parents":[2147483647,0,0,1,1,2,2,3,3,4,4,5,5,6,6,7,7,8,8,9,9,10,10,12,12,13,13,14,14,15,15,16,16,17,17,18,18,19,19,20,20,21,21,22,22,23,23,24,24,25,25,26,26,27,27,28,28,30,30,31,31,32,32,34,34,35,35,36,36,37,37,39,39,40,40,41,41,42,42,43,43,44,44,45,45,46,46,47,47,48,48,50,50,51,51,52,52,53,53,54,54,55,55,56,56],"right_children":[2,4,6,8,10,12,14,16,18,20,22,-1,24,26,28,30,32,34,36,38,40,42,44,46,48,50,52,54,56,-1,58,60,62,-1,64,66,68,70,-1,72,74,76,78,80,82,84,86,88,90,-1,92,94,96,98,100,102,104,-1,-1,-1,-1,-1,-1,-1,-1,-1,-1,-1,-1,-1,-1,-1,-1,-1,-1,-1,-1,-1,-1,-1,-1,-1,-1,-1,-1,-1,-1,-1,-1,-1,-1,-1,-1,-1,-1,-1,-1,-1,-1,-1,-1,-1,-1,-1,-1],"split_conditions":[1.12675145E-1,8.268745E-1,5E-1,6.0068853E-2,5.299577E-1,8.1403786E-1,8.1587714E-1,7.646368E-3,8.1403786E-1,4.895719E-2,-2.5674691E-2,-4.379628E-2,1.6256356E-1,8.1128895E-1,7.358888E-1,4.2122998E-4,9E0,8.1128895E-1,1.1E1,8.298231E-1,8.4203875E-1,8E0,1.584924E-2,6E0,1.7243601E-1,7.612874E-1,1.1839603E-1,2.3580326E-1,2.2087829E-1,-1.8729087E-2,8.1508005E-1,6E0,1.1E1,-4.4319954E-2,-9.475045E-3,6.0113154E-2,9.69927E-2,1.0986441E-2,-4.1996706E-2,1.1E1,6.326918E-2,2.9561773E-2,1.1E1,2E0,8E0,1.0987961E-1,1.388658E-1,2.0513901E-1,2.592485E-1,-4.3900717E-2,1.8118007E-1,1.1E1,8.930076E-1,1.1E1,2.3778565E-1,1.4E1,8.7447345E-1,-4.478939E-2,-1.602174E-2,-7.186064E-3,-3.4310807E-2,-5.3035794E-3,-4.432718E-2,-3.9773013E-2,-9.961692E-4,-9.493793E-3,3.0935288E-3,-4.3375295E-2,-1.5785454E-2,-2.9558206E-2,6.2330556E-4,3.6858988E-3,-2.0316526E-2,-5.0714924E-3,-1.9557904E-2,9.614533E-3,5.7727834E-3,1.5976746E-2,5.8957343E-3,2.2934642E-2,1.6680537E-2,2.1306207E-2,2.6411194E-2,-2.2282427E-2,-4.1569825E-2,-1.4366595E-3,-1.7182656E-2,2.7710188E-2,-8.635885E-3,8.110025E-4,2.1951577E-2,5.662977E-3,2.419904E-2,-4.154637E-3,-3.8197562E-2,1.2924517E-2,-4.8863706E-3,1.43402545E-2,2.783314E-3,3.9363276E-2,2.0226259E-2,2.4954498E-2,3.3068925E-2,2.3564002E-2,3.7306696E-2],"split_indices":[1,4,4,1,5,5,5,1,5,1,0,0,0,4,4,4,2,4,2,4,4,2,1,3,0,5,0,1,1,0,4,2,2,0,0,0,0,0,0,2,1,1,2,3,2,0,0,4,0,0,0,2,4,2,1,2,4,0,0,0,0,0,0,0,0,0,0,0,0,0,0,0,0,0,0,0,0,0,0,0,0,0,0,0,0,0,0,0,0,0,0,0,0,0,0,0,0,0,0,0,0,0,0,0,0],"split_type":[0,0,0,0,0,0,0,0,0,0,0,0,0,0,0,0,0,0,0,0,0,0,0,0,0,0,0,0,0,0,0,0,0,0,0,0,0,0,0,0,0,0,0,0,0,0,0,0,0,0,0,0,0,0,0,0,0,0,0,0,0,0,0,0,0,0,0,0,0,0,0,0,0,0,0,0,0,0,0,0,0,0,0,0,0,0,0,0,0,0,0,0,0,0,0,0,0,0,0,0,0,0,0,0,0],"sum_hessian":[9.619249E3,5.0555913E3,4.563657E3,3.5953306E3,1.460261E3,1.0366735E3,3.526984E3,1.4791326E3,2.116198E3,7.222361E2,7.3802484E2,1.298038E2,9.068696E2,9.7032056E2,2.5566633E3,2.8843713E2,1.1906954E3,2.0414447E2,1.9120536E3,1.5511734E2,5.671187E2,1.2600189E2,6.1202295E2,3.8075763E2,5.26112E2,2.1278822E2,7.5753235E2,2.1495295E3,4.0713382E2,1.0309895E1,2.7812726E2,7.396659E2,4.510295E2,1.5530893E2,4.8835537E1,1.6621876E3,2.4986595E2,3.3971893E1,1.21145454E2,2.9598755E2,2.7113116E2,9.667293E1,2.9328966E1,1.4041034E2,4.716126E2,3.1067966E1,3.4968967E2,1.5684451E2,3.692675E2,7.263237E1,1.4015585E2,7.129122E1,6.8624115E2,1.6719945E3,4.7753513E2,3.4681964E2,6.0314186E1,2.7181308E2,6.3141637E0,1.7999524E2,5.5967065E2,3.9493527E2,5.6094234E1,4.997951E0,4.383759E1,2.8984595E2,1.3723417E3,7.036402E1,1.7950194E2,1.4936769E1,1.9035124E1,2.8490738E2,1.1080184E1,2.0864656E2,6.2484615E1,8.570876E1,1.096416E1,2.7063917E1,2.2650504E0,1.4607613E1,1.2580273E2,3.3378497E2,1.3782765E2,4.8588724E0,2.6209095E1,2.5961798E2,9.007169E1,1.334663E2,2.3378218E1,2.8386975E2,8.539776E1,1.17333496E2,2.2822346E1,5.696982E1,1.4321402E1,6.4926904E2,3.697211E1,1.1156075E3,5.56387E2,5.3089024E1,4.244461E2,2.860645E2,6.0755104E1,7.908947E0,5.240524E1],"tree_param":{"num_deleted":"0","num_feature":"7","num_nodes":"105","size_leaf_vector":"1"}},{"base_weights":[-4.6627786E-9,-1.8378483E-1,1.4656395E-1,-4.4985735E-1,-5.596476E-2,-5.2598383E-2,2.0325628E-1,-4.372715E-2,-3.1130606E-1,-2.9674864E-1,3.933746E-2,-4.3202814E-2,1.5748027E-1,1.5800163E-1,5.3541255E-1,-6.83685E-1,-1.8550938E-1,-7.0211923E-1,-1.3491803E-1,-1.1422544E-1,3.6278176E-1,5.9598356E-2,3.238655E-1,1.9218966E-2,2.4144167E-1,3.5612726E-1,5.5947286E-1,-8.4952503E-1,-5.3005093E-1,-1.4925633E-1,-6.560391E-1,-8.2057256E-1,-5.511482E-1,-9.961187E-2,-7.8708863E-1,-3.4531477E-1,1.4243305E-3,2.0324521E-1,3.8948837E-1,8.7905E-2,-2.7047786E-1,2.6622704E-1,4.5083743E-1,1.1009063E-1,-1.3241747E-1,4.469879E-1,1.8341656E-1,4.1148314E-1,2.4885687E-1,5.245092E-1,6.3869625E-1,-4.3035846E-2,-2.0972874E-2,-1.9939886E-2,-4.0347353E-2,-3.0100554E-2,-6.1896807E-3,-4.1239228E-2,-2.0141352E-3,-2.8164769E-2,-4.1882012E-2,-1.0093202E-2,-3.451163E-2,-8.275147E-3,8.1145065E-3,-4.212041E-2,-1.5574393E-2,-2.4949454E-2,-8.267575E-3,2.0802922E-3,-4.101019E-2,1.2463579E-2,9.061632E-3,2.3918008E-2,1.798751E-2,-8.989339E-3,5.387933E-3,3.175353E-3,-3.4983214E-2,1.0245327E-2,2.149281E-2,6.627208E-3,2.3402577E-2,-4.2973887E-3,8.984557E-3,-3.9248213E-2,-3.8452342E-3,3.0410055E-2,9.812617E-3,7.483326E-3,2.5217384E-2,2.369441E-2,1.4158695E-2,3.4927267E-3,1.3081918E-2,2.9085562E-2,2.029501E-2,2.9602602E-2,3.849892E-2],"categories":[],"categories_nodes":[],"categories_segments":[],"categories_sizes":[],"default_left":[0,0,0,0,0,0,0,0,0,0,0,0,0,0,0,0,0,0,0,0,0,0,0,0,0,0,0,0,0,0,0,0,0,0,0,0,0,0,0,0,0,0,0,0,0,0,0,0,0,0,0,0,0,0,0,0,0,0,0,0,0,0,0,0,0,0,0,0,0,0,0,0,0,0,0,0,0,0,0,0,0,0,0,0,0,0,0,0,0,0,0,0,0,0,0,0,0,0,0],"id":6,"left_children":[1,3,5,7,9,11,13,-1,15,17,19,-1,21,23,25,27,29,31,33,35,37,39,41,43,45,47,49,51,53,55,57,59,61,63,65,67,69,71,73,75,77,79,81,83,85,87,89,91,93,95,97,-1,-1,-1,-1,-1,-1,-1,-1,-1,-1,-1,-1,-1,-1,-1,-1,-1,-1,-1,-1,-1,-1,-1,-1,-1,-1,-1,-1,-1,-1,-1,-1,-1,-1,-1,-1,-1,-1,-1,-1,-1,-1,-1,-1,-1,-1,-1,-1],"loss_changes":[2.5680475E2,1.4382811E2,5.9897995E1,8.0483795E1,6.560308E1,2.0061813E2,6.1980057E1,0E0,4.8422005E1,5.3084816E1,1.0179892E2,0E0,1.5208948E1,4.209185E1,1.9346313E0,6.2081146E0,1.314024E1,3.679634E0,1.3290186E1,3.7146965E1,2.731964E0,5.535787E0,2.412941E0,1.8838055E1,2.6994476E1,2.6149654E-1,8.6824036E-1,2.3588562E-1,4.7051315E0,8.24711E0,5.704628E0,8.769226E-2,4.9434967E0,9.551399E0,5.182781E-1,1.2738544E1,3.0649399E1,5.2797556E-2,1.3187027E0,2.9110713E0,6.758747E0,2.324934E0,5.221405E-1,1.1677535E1,1.8498852E1,2.005481E1,1.9119156E1,1.7722559E-1,3.523755E-2,1.8466187E0,3.3049393E-1,0E0,0E0,0E0,0E0,0E0,0E0,0E0,0E0,0E0,0E0,0E0,0E0,0E0,0E0,0E0,0E0,0E0,0E0,0E0,0E0,0E0,0E0,0E0,0E0,0E0,0E0,0E0,0E0,0E0,0E0,0E0,0E0,0E0,0E0,0E0,0E0,0E0,0E0,0E0,0E0,0E0,0E0,0E0,0E0,0E0,0E0,0E0,0E0],"parents":[2147483647,0,0,1,1,2,2,3,3,4,4,5,5,6,6,8,8,9,9,10,10,12,12,13,13,14,14,15,15,16,16,17,17,18,18,19,19,20,20,21,21,22,22,23,23,24,24,25,25,26,26,27,27,28,28,29,29,30,30,31,31,32,32,33,33,34,34,35,35,36,36,37,37,38,38,39,39,40,40,41,41,42,42,43,43,44,44,45,45,46,46,47,47,48,48,49,49,50,50],"right_children":[2,4,6,8,10,12,14,-1,16,18,20,-1,22,24,26,28,30,32,34,36,38,40,42,44,46,48,50,52,54,56,58,60,62,64,66,68,70,72,74,76,78,80,82,84,86,88,90,92,94,96,98,-1,-1,-1,-1,-1,-1,-1,-1,-1,-1,-1,-1,-1,-1,-1,-1,-1,-1,-1,-1,-1,-1,-1,-1,-1,-1,-1,-1,-1,-1,-1,-1,-1,-1,-1,-1,-1,-1,-1,-1,-1,-1,-1,-1,-1,-1,-1,-1],"split_conditions":[9.5513985E-2,5.9182817E-1,8.1403786E-1,8.1403786E-1,7.612874E-1,8.1128895E-1,7.489469E-1,-4.372715E-2,3.4011435E-2,4.5068145E-2,7.489469E-1,-4.3202814E-2,1.7421886E-1,1.4216772E-1,9.608253E-2,5.8264807E-3,1.1E1,1.8611243E-2,1.1E1,5.0807152E-2,-4.9338102E-2,8.7447345E-1,2.4316262E-1,1.1E1,3E0,1.1E1,1.7544152E-1,2.9561773E-2,2.1419507E-2,2E0,1.0987961E-1,3.535383E-1,8.0036706E-1,9E0,9.5282227E-1,9E0,1.1E1,-5.489526E-2,7E0,8.923652E-2,1.0507185E-1,1.4E1,2.1896122E-1,9.5513895E-2,1.5E1,8E0,2.9263452E-1,1.1037912E-1,1.4E1,1.3026415E-1,9.8525697E-1,-4.3035846E-2,-2.0972874E-2,-1.9939886E-2,-4.0347353E-2,-3.0100554E-2,-6.1896807E-3,-4.1239228E-2,-2.0141352E-3,-2.8164769E-2,-4.1882012E-2,-1.0093202E-2,-3.451163E-2,-8.275147E-3,8.1145065E-3,-4.212041E-2,-1.5574393E-2,-2.4949454E-2,-8.267575E-3,2.0802922E-3,-4.101019E-2,1.2463579E-2,9.061632E-3,2.3918008E-2,1.798751E-2,-8.989339E-3,5.387933E-3,3.175353E-3,-3.4983214E-2,1.0245327E-2,2.149281E-2,6.627208E-3,2.3402577E-2,-4.2973887E-3,8.984557E-3,-3.9248213E-2,-3.8452342E-3,3.0410055E-2,9.812617E-3,7.483326E-3,2.5217384E-2,2.369441E-2,1.4158695E-2,3.4927267E-3,1.3081918E-2,2.9085562E-2,2.029501E-2,2.9602602E-2,3.849892E-2],"split_indices":[1,4,5,5,5,4,4,0,1,1,4,0,0,1,0,0,2,1,2,0,1,4,1,2,3,2,1,1,0,2,0,5,6,2,4,2,2,0,3,0,1,2,0,0,2,2,1,1,2,0,4,0,0,0,0,0,0,0,0,0,0,0,0,0,0,0,0,0,0,0,0,0,0,0,0,0,0,0,0,0,0,0,0,0,0,0,0,0,0,0,0,0,0,0,0,0,0,0,0],"split_type":[0,0,0,0,0,0,0,0,0,0,0,0,0,0,0,0,0,0,0,0,0,0,0,0,0,0,0,0,0,0,0,0,0,0,0,0,0,0,0,0,0,0,0,0,0,0,0,0,0,0,0,0,0,0,0,0,0,0,0,0,0,0,0,0,0,0,0,0,0,0,0,0,0,0,0,0,0,0,0,0,0,0,0,0,0,0,0,0,0,0,0,0,0,0,0,0,0,0,0],"sum_hessian":[9.531805E3,4.2288086E3,5.302996E3,1.3714514E3,2.8573574E3,1.175055E3,4.127941E3,3.360582E2,1.0353933E3,8.096469E2,2.0477104E3,2.4100952E2,9.340456E2,3.6342659E3,4.9367514E2,2.6033215E2,7.750611E2,2.3005124E2,5.7959564E2,1.3889298E3,6.587807E2,5.889395E2,3.4510602E2,1.3650538E3,2.2692122E3,6.0282433E1,4.333927E2,1.23014694E2,1.3731746E2,7.208396E2,5.4221542E1,1.2642315E2,1.0362809E2,5.5092334E2,2.8672272E1,4.6259488E2,9.2633484E2,9.57015E1,5.6307916E2,5.4309827E2,4.5841278E1,2.3948802E2,1.0561802E2,8.537177E2,5.1133618E2,4.980902E2,1.7711218E3,3.789245E1,2.2389986E1,3.0597662E2,1.2741608E2,1.1891864E2,4.0960526E0,9.481423E1,4.250322E1,3.7175545E1,6.83664E2,4.2292107E1,1.1929438E1,9.9805565E0,1.164426E2,3.0210789E1,7.3417305E1,4.4047403E2,1.10449326E2,2.4993858E1,3.6784139E0,2.4856633E2,2.1402856E2,8.8405E2,4.2284874E1,2.7622097E1,6.80794E1,1.3739432E2,4.2568488E2,3.6942177E1,5.061561E2,2.6259022E1,1.9582254E1,1.7584274E2,6.364528E1,5.865374E0,9.975264E1,2.2362257E2,6.3009515E2,3.9059208E1,4.7227698E2,3.0229846E2,1.9579176E2,1.6039158E3,1.672061E2,2.3681347E1,1.4211101E1,1.9230645E0,2.0466923E1,2.0378969E2,1.0218694E2,9.807873E1,2.9337347E1],"tree_param":{"num_deleted":"0","num_feature":"7","num_nodes":"99","size_leaf_vector":"1"}},{"base_weights":[-6.549555E-9,-2.2482787E-1,1.2007515E-1,-3.348601E-1,7.125479E-2,-6.8580404E-2,1.7463982E-1,-5.1762193E-1,-1.3222252E-1,-3.6577818E-1,3.2822508E-1,-4.2396296E-2,1.2700738E-1,1.298256E-1,4.9500132E-1,-8.4984195E-1,-4.2866117E-1,-1.1409591E-1,-7.9757935E-1,-4.0901694E-2,-1.5628819E-1,3.138335E-1,5.99357E-1,6.010341E-2,2.7526015E-1,-2.984535E-3,2.3714498E-1,4.6535188E-1,6.283421E-1,-4.2699657E-2,-3.852469E-1,-5.8251464E-1,-2.2906749E-1,-3.7705383E-1,-7.582525E-2,-4.1412998E-2,-1.5320793E-2,-4.093495E-1,-1.0703135E-1,3.7100238E-1,2.4562022E-1,3.1552315E-2,9.317401E-3,9.848686E-2,-3.7106225E-1,3.5842875E-1,2.0971301E-1,7.417514E-2,-2.2562428E-1,4.3910384E-1,1.7940721E-1,5.591875E-1,4.420907E-1,2.8901229E-2,3.623262E-2,-2.898031E-2,2.2370063E-3,-6.8122833E-3,-3.9966017E-2,-7.272869E-3,-4.2681806E-2,-4.1828405E-2,-6.813872E-3,-1.4026975E-3,-1.1140564E-2,-2.2512985E-2,-6.6218353E-3,1.0031251E-2,-7.943156E-3,1.9280428E-2,5.083882E-3,2.0917734E-2,1.1401384E-2,7.5166337E-3,-3.2592812E-3,-5.6176456E-3,-3.632635E-2,1.867387E-2,-9.93808E-3,-5.3693424E-3,1.218722E-2,6.8139047E-3,-1.892256E-3,-2.6315397E-2,-5.84581E-3,2.9199276E-2,8.482362E-3,5.023644E-3,1.5192568E-2,1.2670146E-2,2.8531939E-2,1.2743256E-2,2.3375783E-2],"categories":[],"categories_nodes":[],"categories_segments":[],"categories_sizes":[],"default_left":[0,0,0,0,0,0,0,0,0,0,0,0,0,0,0,0,0,0,0,0,0,0,0,0,0,0,0,0,0,0,0,0,0,0,0,0,0,0,0,0,0,0,0,0,0,0,0,0,0,0,0,0,0,0,0,0,0,0,0,0,0,0,0,0,0,0,0,0,0,0,0,0,0,0,0,0,0,0,0,0,0,0,0,0,0,0,0,0,0,0,0,0,0],"id":7,"left_children":[1,3,5,7,9,11,13,15,17,19,21,-1,23,25,27,29,31,33,35,-1,37,39,41,43,45,47,49,51,53,-1,55,57,59,61,63,-1,-1,65,67,69,71,-1,-1,73,75,77,79,81,83,85,87,89,91,-1,-1,-1,-1,-1,-1,-1,-1,-1,-1,-1,-1,-1,-1,-1,-1,-1,-1,-1,-1,-1,-1,-1,-1,-1,-1,-1,-1,-1,-1,-1,-1,-1,-1,-1,-1,-1,-1,-1,-1],"loss_changes":[2.5563664E2,1.0742499E2,6.3552963E1,8.894937E1,1.00522606E2,2.1130174E2,6.8678116E1,3.6976807E1,1.3672493E1,3.1279865E1,2.0107498E0,0E0,1.0977581E1,5.989099E1,2.0292664E0,1.8373108E-1,3.0532242E1,1.1163018E1,1.9976425E-1,0E0,2.7956586E0,2.0038261E0,2.3976517E-1,1.269757E1,1.8022614E0,3.229432E1,2.7020523E1,8.098221E-1,8.498001E-2,0E0,3.7494367E-1,5.439012E1,2.2661604E1,1.549045E1,6.8192263E0,0E0,0E0,3.5681581E-1,3.0941296E0,1.1028061E0,6.579466E-1,0E0,0E0,5.977698E0,5.688779E0,1.3351784E0,2.1305838E0,9.717474E0,1.5753178E1,2.004512E1,1.7739086E1,1.79039E-1,1.7508926E0,0E0,0E0,0E0,0E0,0E0,0E0,0E0,0E0,0E0,0E0,0E0,0E0,0E0,0E0,0E0,0E0,0E0,0E0,0E0,0E0,0E0,0E0,0E0,0E0,0E0,0E0,0E0,0E0,0E0,0E0,0E0,0E0,0E0,0E0,0E0,0E0,0E0,0E0,0E0,0E0],"parents":[2147483647,0,0,1,1,2,2,3,3,4,4,5,5,6,6,7,7,8,8,9,9,10,10,12,12,13,13,14,14,15,15,16,16,17,17,18,18,20,20,21,21,22,22,23,23,24,24,25,25,26,26,27,27,28,28,30,30,31,31,32,32,33,33,34,34,37,37,38,38,39,39,40,40,43,43,44,44,45,45,46,46,47,47,48,48,49,49,50,50,51,51,52,52],"right_children":[2,4,6,8,10,12,14,16,18,20,22,-1,24,26,28,30,32,34,36,-1,38,40,42,44,46,48,50,52,54,-1,56,58,60,62,64,-1,-1,66,68,70,72,-1,-1,74,76,78,80,82,84,86,88,90,92,-1,-1,-1,-1,-1,-1,-1,-1,-1,-1,-1,-1,-1,-1,-1,-1,-1,-1,-1,-1,-1,-1,-1,-1,-1,-1,-1,-1,-1,-1,-1,-1,-1,-1,-1,-1,-1,-1,-1,-1],"split_conditions":[7.728811E-2,8.4203875E-1,8.1403786E-1,5.6879982E-2,5.299577E-1,8.1128895E-1,7.489469E-1,7.646368E-3,1.1E1,4.895719E-2,9.8525697E-1,-4.2396296E-2,1.7544152E-1,1.2627837E-1,1.9486529E-1,3.4979694E-2,9E0,8.1403786E-1,1.1151996E-1,-4.0901694E-2,4.7869567E-2,9.604044E-1,1.1E1,8.7447345E-1,1.1E1,1.1E1,3E0,8.57203E-1,2.3580326E-1,-4.2699657E-2,4.5148884E-3,6E0,1.1E1,8.1128895E-1,7.346152E-2,-4.1412998E-2,-1.5320793E-2,6.2133178E-2,5.9991363E-2,1.1E1,6E0,3.1552315E-2,9.317401E-3,1.1E1,8.0036706E-1,9.5282227E-1,1.8118007E-1,6.2721145E-1,1.0050858E-1,1.1E1,2.0581004E-1,9.091292E-2,8.7447345E-1,2.8901229E-2,3.623262E-2,-2.898031E-2,2.2370063E-3,-6.8122833E-3,-3.9966017E-2,-7.272869E-3,-4.2681806E-2,-4.1828405E-2,-6.813872E-3,-1.4026975E-3,-1.1140564E-2,-2.2512985E-2,-6.6218353E-3,1.0031251E-2,-7.943156E-3,1.9280428E-2,5.083882E-3,2.0917734E-2,1.1401384E-2,7.5166337E-3,-3.2592812E-3,-5.6176456E-3,-3.632635E-2,1.867387E-2,-9.93808E-3,-5.3693424E-3,1.218722E-2,6.8139047E-3,-1.892256E-3,-2.6315397E-2,-5.84581E-3,2.9199276E-2,8.482362E-3,5.023644E-3,1.5192568E-2,1.2670146E-2,2.8531939E-2,1.2743256E-2,2.3375783E-2],"split_indices":[1,4,5,1,5,4,4,1,2,1,4,0,1,0,0,0,2,5,0,0,0,4,2,4,2,2,3,4,1,0,1,2,2,4,0,0,0,1,1,2,2,0,0,2,6,4,0,4,0,2,1,1,4,0,0,0,0,0,0,0,0,0,0,0,0,0,0,0,0,0,0,0,0,0,0,0,0,0,0,0,0,0,0,0,0,0,0,0,0,0,0,0,0],"split_type":[0,0,0,0,0,0,0,0,0,0,0,0,0,0,0,0,0,0,0,0,0,0,0,0,0,0,0,0,0,0,0,0,0,0,0,0,0,0,0,0,0,0,0,0,0,0,0,0,0,0,0,0,0,0,0,0,0,0,0,0,0,0,0,0,0,0,0,0,0,0,0,0,0,0,0,0,0,0,0,0,0,0,0,0,0,0,0,0,0,0,0,0,0],"sum_hessian":[9.467342E3,3.2956738E3,6.1716685E3,2.4026528E3,8.930208E2,1.3845107E3,4.7871577E3,1.2624637E3,1.1401892E3,3.3050424E2,5.625166E2,2.770867E2,1.1074241E3,4.2009126E3,5.862452E2,2.6484787E2,9.9761584E2,1.1110908E3,2.9098444E1,1.03708694E2,2.2679555E2,5.3621216E2,2.6304419E1,7.640338E2,3.433902E2,1.8779183E3,2.3229941E3,4.8327493E2,1.0297027E2,2.6167166E2,3.1761854E0,5.622761E2,4.353397E2,1.4003784E2,9.710529E2,2.67417E1,2.3567455E0,3.5760803E1,1.9103474E2,2.8930756E2,2.469046E2,2.3939661E1,2.364759E0,7.0228613E2,6.1747696E1,1.4938135E2,1.9400885E2,1.3950919E3,4.828265E2,5.149975E2,1.8079966E3,9.1425476E1,3.9184946E2,7.2233444E1,3.0736826E1,1.9477962E0,1.2283891E0,1.8438002E2,3.7789612E2,3.8502927E2,5.0310436E1,4.729752E1,9.274032E1,7.3376575E2,2.372872E2,3.0612251E1,5.148553E0,2.7129894E1,1.6390485E2,2.7401523E2,1.5292319E1,2.0716553E1,2.2618805E2,5.334037E2,1.6888246E2,3.6499336E1,2.5248362E1,1.4577397E2,3.6073663E0,1.8594284E1,1.7541457E2,8.9737775E2,4.9771414E2,1.2718759E2,3.5563892E2,3.341592E2,1.808383E2,1.1073911E3,7.006055E2,4.135078E0,8.72904E1,4.816844E1,3.4368103E2],"tree_param":{"num_deleted":"0","num_feature":"7","num_nodes":"93","size_leaf_vector":"1"}},{"base_weights":[-3.0843934E-9,-2.5193772E-1,9.447908E-2,-4.226322E-1,9.6421346E-2,9.046773E-3,2.2350019E-1,-7.588238E-1,-3.336949E-1,-3.0303374E-1,3.3417413E-1,-3.6667958E-2,3.2855937E-1,1.6211179E-1,3.7906682E-1,-4.254177E-2,-5.4785043E-1,-4.257018E-1,-1.7748126E-1,-7.934949E-1,-7.023356E-2,3.4548268E-1,1.6761489E-1,1.6570326E-2,-2.199794E-1,-2.957915E-1,4.4700253E-1,5.3421533E-1,1.4243595E-1,3.2163134E-1,6.1802477E-1,-4.1043904E-1,-7.9823506E-1,-5.6419486E-1,-2.3043306E-1,-9.36239E-2,-4.165472E-2,-5.470167E-1,-8.2040375E-1,-3.3787295E-1,-2.8428148E-2,3.230191E-1,4.36878E-1,4.9324385E-3,1.8989773E-1,-1.2192361E-2,2.1443129E-1,-7.911701E-1,-1.488406E-1,-6.466412E-1,-1.132176E-1,5.6389356E-1,4.3038726E-1,-1.4164256E-1,7.5035626E-1,1.1286146E-1,3.95877E-1,5.569958E-1,2.54299E-1,7.0773405E-1,4.6897954E-1,-2.485471E-2,-5.252459E-3,-4.1826054E-2,-1.2744089E-2,-6.188816E-3,-3.817118E-2,-9.598546E-3,-3.4655392E-2,-3.238104E-2,-1.5188851E-3,-7.709005E-3,-3.2466777E-2,-4.126495E-2,-1.2835647E-2,1.5257711E-3,-1.7684748E-2,-7.0893107E-4,-3.2385234E-2,2.1288762E-2,1.5187368E-2,1.7765436E-2,2.6678188E-2,3.1757918E-3,1.0622959E-2,-3.9723455E-3,3.1047452E-3,-3.3756667E-3,1.3776789E-2,-4.027301E-2,-1.9405838E-2,-2.1310737E-2,1.8322542E-3,-2.5988435E-3,-3.4756508E-2,-3.2753043E-2,-1.1877924E-3,3.418621E-2,2.1120836E-3,2.3019457E-2,1.7851947E-2,-1.383019E-2,1.3021111E-2,4.429223E-2,9.944511E-3,9.205587E-3,1.5785454E-3,5.419283E-3,2.6766568E-2,1.4881252E-2,3.869459E-2,1.1179178E-2,3.0834509E-2,4.0349115E-2,3.0451044E-2,-8.746578E-3,2.4255339E-2],"categories":[],"categories_nodes":[],"categories_segments":[],"categories_sizes":[],"default_left":[0,0,0,0,0,0,0,0,0,0,0,0,0,0,0,0,0,0,0,0,0,0,0,0,0,0,0,0,0,0,0,0,0,0,0,0,0,0,0,0,0,0,0,0,0,0,0,0,0,0,0,0,0,0,0,0,0,0,0,0,0,0,0,0,0,0,0,0,0,0,0,0,0,0,0,0,0,0,0,0,0,0,0,0,0,0,0,0,0,0,0,0,0,0,0,0,0,0,0,0,0,0,0,0,0,0,0,0,0,0,0,0,0,0,0,0,0],"id":8,"left_children":[1,3,5,7,9,11,13,15,17,19,21,23,25,27,29,-1,31,33,35,37,39,41,43,45,47,49,51,53,55,57,59,61,63,65,67,69,-1,71,73,75,77,79,81,-1,83,85,87,89,91,93,95,97,99,101,103,105,107,109,111,113,115,-1,-1,-1,-1,-1,-1,-1,-1,-1,-1,-1,-1,-1,-1,-1,-1,-1,-1,-1,-1,-1,-1,-1,-1,-1,-1,-1,-1,-1,-1,-1,-1,-1,-1,-1,-1,-1,-1,-1,-1,-1,-1,-1,-1,-1,-1,-1,-1,-1,-1,-1,-1,-1,-1,-1,-1],"loss_changes":[2.2410338E2,1.5272801E2,7.547188E1,5.128018E1,8.03754E1,6.0198074E1,2.5988007E1,6.517868E0,1.9539642E1,3.601343E1,9.410286E-1,3.519194E1,3.827987E1,1.4256599E1,1.0383873E1,0E0,3.5281143E0,2.3077728E1,2.7827782E1,2.2497177E-1,2.3995156E0,8.7654877E-1,3.6069036E-2,1.5909524E1,3.2859257E1,5.2343636E0,6.002121E-1,1.4415171E1,1.3901833E1,9.743057E0,1.6514091E0,1.9170866E0,5.908394E-1,4.389897E1,6.2338676E0,1.5787699E1,0E0,4.2239356E-1,3.533554E-2,1.79806E-1,1.6437936E0,6.662102E-1,5.5931664E-1,0E0,6.0274303E-2,1.2202002E1,6.1311646E0,2.0375061E-1,3.7208847E1,7.7549267E-1,2.6849787E0,3.145914E0,6.8110657E-1,1.405607E0,5.3809853E0,9.653122E0,7.7213345E0,7.527672E0,5.281025E0,3.96492E-1,6.94417E-1,0E0,0E0,0E0,0E0,0E0,0E0,0E0,0E0,0E0,0E0,0E0,0E0,0E0,0E0,0E0,0E0,0E0,0E0,0E0,0E0,0E0,0E0,0E0,0E0,0E0,0E0,0E0,0E0,0E0,0E0,0E0,0E0,0E0,0E0,0E0,0E0,0E0,0E0,0E0,0E0,0E0,0E0,0E0,0E0,0E0,0E0,0E0,0E0,0E0,0E0,0E0,0E0,0E0,0E0,0E0,0E0],"parents":[2147483647,0,0,1,1,2,2,3,3,4,4,5,5,6,6,7,7,8,8,9,9,10,10,11,11,12,12,13,13,14,14,16,16,17,17,18,18,19,19,20,20,21,21,22,22,23,23,24,24,25,25,26,26,27,27,28,28,29,29,30,30,31,31,32,32,33,33,34,34,35,35,37,37,38,38,39,39,40,40,41,41,42,42,44,44,45,45,46,46,47,47,48,48,49,49,50,50,51,51,52,52,53,53,54,54,55,55,56,56,57,57,58,58,59,59,60,60],"right_children":[2,4,6,8,10,12,14,16,18,20,22,24,26,28,30,-1,32,34,36,38,40,42,44,46,48,50,52,54,56,58,60,62,64,66,68,70,-1,72,74,76,78,80,82,-1,84,86,88,90,92,94,96,98,100,102,104,106,108,110,112,114,116,-1,-1,-1,-1,-1,-1,-1,-1,-1,-1,-1,-1,-1,-1,-1,-1,-1,-1,-1,-1,-1,-1,-1,-1,-1,-1,-1,-1,-1,-1,-1,-1,-1,-1,-1,-1,-1,-1,-1,-1,-1,-1,-1,-1,-1,-1,-1,-1,-1,-1,-1,-1,-1,-1,-1,-1],"split_conditions":[6.639329E-2,8.4203875E-1,1.5427184E-1,1.6622938E-2,5.299577E-1,8.4203875E-1,2.294862E-1,7.919718E-3,9E0,5.0885618E-2,1.1E1,1.1E1,5.299577E-1,1.5566823E-1,3.1042904E-1,-4.254177E-2,1.2025794E-2,5.940589E-2,1.1E1,8.0036706E-1,4.7869567E-2,8E0,1.4E1,8E0,1.5E1,9.608253E-2,8.523424E-1,9.4554996E-1,8.4203875E-1,3E0,5E0,1.1297888E-2,7.148273E-1,6E0,6.539818E-2,3.9090145E-1,-4.165472E-2,-1.7250882E-2,4.895719E-2,6E0,6.244151E-2,6E0,8.992434E-3,4.9324385E-3,-3.1566374E-2,9.530569E-1,8.1403786E-1,1.6118824E-1,1.1634852E-1,6.829337E-2,4E0,1.343858E-1,1.1E1,8.1128895E-1,9.5646185E-1,1.1E1,5.299577E-1,2E0,9.187026E-1,9.1871744E-1,1.7017692E-1,-2.485471E-2,-5.252459E-3,-4.1826054E-2,-1.2744089E-2,-6.188816E-3,-3.817118E-2,-9.598546E-3,-3.4655392E-2,-3.238104E-2,-1.5188851E-3,-7.709005E-3,-3.2466777E-2,-4.126495E-2,-1.2835647E-2,1.5257711E-3,-1.7684748E-2,-7.0893107E-4,-3.2385234E-2,2.1288762E-2,1.5187368E-2,1.7765436E-2,2.6678188E-2,3.1757918E-3,1.0622959E-2,-3.9723455E-3,3.1047452E-3,-3.3756667E-3,1.3776789E-2,-4.027301E-2,-1.9405838E-2,-2.1310737E-2,1.8322542E-3,-2.5988435E-3,-3.4756508E-2,-3.2753043E-2,-1.1877924E-3,3.418621E-2,2.1120836E-3,2.3019457E-2,1.7851947E-2,-1.383019E-2,1.3021111E-2,4.429223E-2,9.944511E-3,9.205587E-3,1.5785454E-3,5.419283E-3,2.6766568E-2,1.4881252E-2,3.869459E-2,1.1179178E-2,3.0834509E-2,4.0349115E-2,3.0451044E-2,-8.746578E-3,2.4255339E-2],"split_indices":[1,4,1,1,5,4,0,0,2,1,2,2,5,1,0,0,0,1,2,6,0,2,2,2,2,0,5,6,4,3,3,1,4,2,0,4,0,0,1,2,0,2,1,0,1,5,5,0,0,1,3,0,2,4,6,2,5,3,4,5,4,0,0,0,0,0,0,0,0,0,0,0,0,0,0,0,0,0,0,0,0,0,0,0,0,0,0,0,0,0,0,0,0,0,0,0,0,0,0,0,0,0,0,0,0,0,0,0,0,0,0,0,0,0,0,0,0],"split_type":[0,0,0,0,0,0,0,0,0,0,0,0,0,0,0,0,0,0,0,0,0,0,0,0,0,0,0,0,0,0,0,0,0,0,0,0,0,0,0,0,0,0,0,0,0,0,0,0,0,0,0,0,0,0,0,0,0,0,0,0,0,0,0,0,0,0,0,0,0,0,0,0,0,0,0,0,0,0,0,0,0,0,0,0,0,0,0,0,0,0,0,0,0,0,0,0,0,0,0,0,0,0,0,0,0,0,0,0,0,0,0,0,0,0,0,0,0],"sum_hessian":[9.412983E3,2.5667708E3,6.846213E3,1.7225269E3,8.44244E2,4.119515E3,2.7266975E3,3.5877814E2,1.3637488E3,3.1489893E2,5.293451E2,3.6046584E3,5.1485657E2,1.9566305E3,7.700671E2,2.4771121E2,1.1106693E2,8.571678E2,5.065809E2,1.0058305E2,2.1431587E2,4.946842E2,3.4660877E1,2.7940928E3,8.105657E2,8.185835E1,4.329982E2,9.695204E1,1.8596785E3,6.227338E2,1.4733322E2,7.3415596E1,3.7651337E1,5.003843E2,3.567835E2,4.5014688E2,5.6434036E1,1.199947E1,8.858358E1,2.7996902E1,1.8631897E2,4.007261E2,9.39581E1,9.78942E0,2.4871458E1,2.4402905E3,3.5380222E2,8.865019E1,7.2191547E2,2.7147526E1,5.4710827E1,4.9788754E1,3.8320944E2,2.357604E1,7.3376E1,1.6666406E3,1.9303795E2,1.3690417E2,4.8582968E2,8.963442E1,5.7698807E1,5.6699287E1,1.6716305E1,3.466893E1,2.9824102E0,1.5635793E2,3.4402637E2,3.307068E2,2.6076727E1,4.517783E1,4.0496906E2,2.9975855E0,9.001884E0,8.736081E1,1.2227727E0,1.1146859E0,2.6882215E1,1.831281E2,3.1908748E0,5.995505E1,3.4077106E2,5.3498646E1,4.045945E1,4.345365E0,2.0526093E1,1.2807336E3,1.159557E3,6.300118E1,2.9080106E2,8.465054E1,3.9996488E0,2.8877914E2,4.3313635E2,2.2029269E0,2.49446E1,6.8571095E0,4.7853718E1,4.0235435E1,9.553319E0,2.682213E2,1.1498814E2,1.7884714E1,5.691326E0,5.8417263E1,1.4958738E1,8.874955E2,7.791451E2,6.3632957E1,1.2940498E2,6.3427654E1,7.347652E1,4.493599E2,3.646977E1,4.111826E1,4.851616E1,1.1692022E0,5.6529606E1],"tree_param":{"num_deleted":"0","num_feature":"7","num_nodes":"117","size_leaf_vector":"1"}},{"base_weights":[1.941449E-9,-1.9211163E-1,1.227181E-1,-4.9192083E-1,-8.741582E-2,-5.5053722E-2,1.7735766E-1,-4.175445E-2,-2.7161288E-1,-2.1703856E-1,3.3798054E-1,-4.1443646E-2,1.2369435E-1,1.3847415E-1,4.9884632E-1,-7.546884E-1,-1.877653E-1,-5.622456E-1,-1.4605358E-1,2.8211394E-1,3.9011684E-1,1.5299828E-1,-2.3304324E-1,8.881494E-2,3.6984587E-1,4.1420394E-1,5.4118073E-1,-4.0853765E-2,-4.8458394E-1,-1.0050278E-1,-4.140257E-1,-4.1740555E-2,-4.2816755E-1,-1.20029606E-1,-7.7130866E-1,2.5806344E-1,3.3715287E-1,4.5226324E-1,2.2739707E-1,-1.2676571E-1,1.6665061E-1,-3.9801726E-1,2.6252547E-1,1.6472137E-1,-5.100928E-2,5.551549E-1,3.0147213E-1,4.4738376E-1,3.1864303E-1,2.747665E-1,5.525851E-1,-1.6818333E-2,-3.28557E-2,-4.2233407E-3,-3.744795E-2,-3.6609154E-2,-1.4625979E-2,-1.3196342E-2,-2.4261702E-2,-4.4090455E-4,-1.1778596E-2,-4.1649517E-2,-1.5747113E-2,1.1395755E-2,1.4176619E-2,1.8747201E-2,1.0480264E-2,2.3101563E-2,1.5846107E-2,8.817395E-3,1.6251981E-2,-8.602948E-3,8.127589E-6,7.783872E-3,2.1330599E-2,-1.320678E-2,-3.0826762E-2,1.683774E-2,8.798576E-3,4.8269993E-3,1.457142E-2,-1.086694E-2,1.7420733E-3,1.6513193E-2,3.4268763E-2,1.2998057E-2,2.5591357E-2,2.0881085E-2,3.5831656E-2,1.6884375E-2,9.506417E-3,1.6557567E-2,9.355918E-3,2.6574735E-2,3.3674292E-2],"categories":[],"categories_nodes":[],"categories_segments":[],"categories_sizes":[],"default_left":[0,0,0,0,0,0,0,0,0,0,0,0,0,0,0,0,0,0,0,0,0,0,0,0,0,0,0,0,0,0,0,0,0,0,0,0,0,0,0,0,0,0,0,0,0,0,0,0,0,0,0,0,0,0,0,0,0,0,0,0,0,0,0,0,0,0,0,0,0,0,0,0,0,0,0,0,0,0,0,0,0,0,0,0,0,0,0,0,0,0,0,0,0,0,0],"id":9,"left_children":[1,3,5,7,9,11,13,-1,15,17,19,-1,21,23,25,27,29,31,33,35,37,39,41,43,45,47,49,-1,51,53,55,-1,57,59,61,63,65,67,69,71,73,75,77,79,81,83,85,87,89,91,93,-1,-1,-1,-1,-1,-1,-1,-1,-1,-1,-1,-1,-1,-1,-1,-1,-1,-1,-1,-1,-1,-1,-1,-1,-1,-1,-1,-1,-1,-1,-1,-1,-1,-1,-1,-1,-1,-1,-1,-1,-1,-1,-1,-1],"loss_changes":[2.2084683E2,1.1457056E2,5.553327E1,7.1207214E1,1.4937097E2,1.8609013E2,5.4590607E1,0E0,2.3226318E1,5.0785034E1,1.7328796E0,0E0,1.1463585E1,4.4801872E1,1.4650269E0,1.0363083E0,9.690748E0,1.2568489E1,2.7945518E1,3.2208824E-1,3.1804771E0,3.8818207E0,6.921178E0,3.411979E1,8.565102E0,3.692932E-1,7.930069E-1,0E0,2.496314E-1,3.649576E0,5.0771465E0,0E0,2.1132202E0,2.1269983E1,1.6706467E0,1.03793144E-1,3.5868263E-1,1.6283798E-1,3.9998198E-1,2.7367747E-1,2.6840763E0,1.6788378E0,7.840431E-2,1.7969894E1,1.616647E1,5.1788597E0,4.2822037E0,6.410961E-1,4.612875E-2,1.095283E-2,3.999176E-1,0E0,0E0,0E0,0E0,0E0,0E0,0E0,0E0,0E0,0E0,0E0,0E0,0E0,0E0,0E0,0E0,0E0,0E0,0E0,0E0,0E0,0E0,0E0,0E0,0E0,0E0,0E0,0E0,0E0,0E0,0E0,0E0,0E0,0E0,0E0,0E0,0E0,0E0,0E0,0E0,0E0,0E0,0E0,0E0],"parents":[2147483647,0,0,1,1,2,2,3,3,4,4,5,5,6,6,8,8,9,9,10,10,12,12,13,13,14,14,15,15,16,16,17,17,18,18,19,19,20,20,21,21,22,22,23,23,24,24,25,25,26,26,28,28,29,29,30,30,32,32,33,33,34,34,35,35,36,36,37,37,38,38,39,39,40,40,41,41,42,42,43,43,44,44,45,45,46,46,47,47,48,48,49,49,50,50],"right_children":[2,4,6,8,10,12,14,-1,16,18,20,-1,22,24,26,28,30,32,34,36,38,40,42,44,46,48,50,-1,52,54,56,-1,58,60,62,64,66,68,70,72,74,76,78,80,82,84,86,88,90,92,94,-1,-1,-1,-1,-1,-1,-1,-1,-1,-1,-1,-1,-1,-1,-1,-1,-1,-1,-1,-1,-1,-1,-1,-1,-1,-1,-1,-1,-1,-1,-1,-1,-1,-1,-1,-1,-1,-1,-1,-1,-1,-1,-1,-1],"split_conditions":[8.860764E-2,8.1403786E-1,8.1403786E-1,8.1128895E-1,7.489469E-1,8.1128895E-1,7.489469E-1,-4.175445E-2,2.9561773E-2,1.7430965E-2,2.3760095E-2,-4.1443646E-2,8.930076E-1,2.159321E-1,1.129085E-1,1.8611243E-2,9.4384885E-1,7.646368E-3,1.1E1,8E0,7.728811E-2,8.200986E-2,2.125929E-1,1.1E1,9.335947E-1,1.1E1,1.1037912E-1,-4.0853765E-2,8.0036706E-1,1.1E1,5.940589E-2,-4.1740555E-2,9.5575446E-1,9.619784E-1,9.938051E-2,9.604044E-1,1.1E1,1.1E1,2E0,1.0857611E-1,2.8439033E-1,8.0036706E-1,2E0,1.4216751E-1,1.4E1,9.131637E-1,3.1697583E-1,1E1,9.69927E-2,1.0268889E-1,2.294862E-1,-1.6818333E-2,-3.28557E-2,-4.2233407E-3,-3.744795E-2,-3.6609154E-2,-1.4625979E-2,-1.3196342E-2,-2.4261702E-2,-4.4090455E-4,-1.1778596E-2,-4.1649517E-2,-1.5747113E-2,1.1395755E-2,1.4176619E-2,1.8747201E-2,1.0480264E-2,2.3101563E-2,1.5846107E-2,8.817395E-3,1.6251981E-2,-8.602948E-3,8.127589E-6,7.783872E-3,2.1330599E-2,-1.320678E-2,-3.0826762E-2,1.683774E-2,8.798576E-3,4.8269993E-3,1.457142E-2,-1.086694E-2,1.7420733E-3,1.6513193E-2,3.4268763E-2,1.2998057E-2,2.5591357E-2,2.0881085E-2,3.5831656E-2,1.6884375E-2,9.506417E-3,1.6557567E-2,9.355918E-3,2.6574735E-2,3.3674292E-2],"split_indices":[1,5,5,4,4,4,4,0,1,0,0,0,4,0,0,1,6,1,2,2,1,0,1,2,5,2,1,0,6,2,1,0,5,5,0,4,2,2,3,1,1,6,3,0,2,6,1,2,0,1,0,0,0,0,0,0,0,0,0,0,0,0,0,0,0,0,0,0,0,0,0,0,0,0,0,0,0,0,0,0,0,0,0,0,0,0,0,0,0,0,0,0,0,0,0],"split_type":[0,0,0,0,0,0,0,0,0,0,0,0,0,0,0,0,0,0,0,0,0,0,0,0,0,0,0,0,0,0,0,0,0,0,0,0,0,0,0,0,0,0,0,0,0,0,0,0,0,0,0,0,0,0,0,0,0,0,0,0,0,0,0,0,0,0,0,0,0,0,0,0,0,0,0,0,0,0,0,0,0,0,0,0,0,0,0,0,0,0,0,0,0,0,0],"sum_hessian":[9.365612E3,3.65042E3,5.7151924E3,9.438609E2,2.706559E3,1.3436311E3,4.371561E3,3.6793973E2,5.7592114E2,2.0748274E3,6.317318E2,2.5144823E2,1.0921829E3,3.9011538E3,4.704073E2,8.399509E1,4.919261E2,3.526985E2,1.7221288E3,3.0805106E2,3.236808E2,1.0098044E3,8.237848E1,3.2129448E3,6.8820905E2,1.6043047E2,3.0997684E2,6.658964E1,1.740545E1,3.5605103E2,1.3587505E2,1.1456815E2,2.3813033E2,1.65446E3,6.766892E1,2.183338E2,8.971725E1,2.3293727E2,9.07435E1,4.659952E1,9.6320483E2,6.1951706E1,2.0426775E1,2.0823308E3,1.130614E3,1.8357042E2,5.0463864E2,1.1635056E2,4.407989E1,1.3754548E1,2.962223E2,1.0948992E1,6.456459E0,3.4856155E2,7.4894767E0,3.616169E1,9.9713356E1,6.2854958E1,1.7527536E2,8.4357776E2,8.1088214E2,5.888488E1,8.784045E0,1.0453798E2,1.1379582E2,6.771444E1,2.2002804E1,2.150058E2,1.7931479E1,6.143191E1,2.9311584E1,3.408207E1,1.251745E1,9.25728E2,3.7476837E1,3.9784992E1,2.2166714E1,9.440144E0,1.0986631E1,1.3549763E3,7.273545E2,3.8437808E2,7.462359E2,6.86125E1,1.1495792E2,4.233345E2,8.130414E1,1.07066765E2,9.2838E0,3.6973248E1,7.1066437E0,6.679425E0,7.075124E0,2.5681802E2,3.9404255E1],"tree_param":{"num_deleted":"0","num_feature":"7","num_nodes":"95","size_leaf_vector":"1"}},{"base_weights":[3.7653223E-9,-2.0979087E-1,1.0844902E-1,-3.2123128E-1,9.558105E-2,-6.7763515E-2,1.5883659E-1,-6.214383E-1,-2.1151417E-1,-2.8045985E-1,3.1904566E-1,-4.0651917E-2,1.0290505E-1,1.1674888E-1,4.7793216E-1,-8.007554E-1,-4.9079594E-1,-4.0996593E-1,-1.593303E-1,-7.7042127E-1,-7.713609E-2,2.2978017E-1,3.4530473E-1,3.4725484E-2,2.508823E-1,3.5578082E-3,2.1878575E-1,4.1203862E-1,5.2594715E-1,-8.053881E-1,-7.0247697E-3,-7.7006114E-1,-3.8555738E-1,-4.103529E-2,-1.5097697E-1,-2.736251E-1,-7.573538E-2,-5.415699E-1,-3.975727E-2,-3.0835423E-1,-3.775303E-2,6.206126E-4,2.4001288E-1,3.559448E-1,2.2161035E-1,6.9499224E-2,-3.5014436E-1,2.0583616E-1,3.616965E-1,6.74243E-2,-1.8688494E-1,1.6111207E-1,3.7249243E-1,3.5603377E-1,4.7237572E-1,4.9738464E-1,6.215971E-1,-4.118424E-2,-3.2248277E-2,-4.1125536E-2,-1.4180484E-2,-1.5214919E-2,-3.904123E-2,-1.13211265E-2,-3.2408765E-4,-1.952756E-2,-2.6047362E-3,1.1570183E-2,-5.0395518E-3,-1.0352688E-2,-3.1126618E-2,-5.1400634E-6,-1.5945463E-2,-1.2379385E-3,-2.8558811E-2,1.214747E-2,3.2081064E-3,1.6352158E-2,2.3592344E-2,5.911278E-3,1.3298901E-2,6.3760504E-3,-4.428244E-3,-5.886289E-3,-3.4517158E-2,5.597992E-3,1.3429575E-2,2.2191312E-2,1.4991191E-2,-2.3640798E-2,3.8091193E-3,-3.9255112E-2,-5.6883097E-3,4.5800367E-3,1.6051177E-2,1.7392995E-2,3.5893075E-2,1.5559012E-2,2.0950442E-2,2.6615256E-2,2.1036685E-2,2.819401E-2,2.2274053E-2,2.5484582E-2,3.4689557E-2],"categories":[],"categories_nodes":[],"categories_segments":[],"categories_sizes":[],"default_left":[0,0,0,0,0,0,0,0,0,0,0,0,0,0,0,0,0,0,0,0,0,0,0,0,0,0,0,0,0,0,0,0,0,0,0,0,0,0,0,0,0,0,0,0,0,0,0,0,0,0,0,0,0,0,0,0,0,0,0,0,0,0,0,0,0,0,0,0,0,0,0,0,0,0,0,0,0,0,0,0,0,0,0,0,0,0,0,0,0,0,0,0,0,0,0,0,0,0,0,0,0,0,0,0,0],"id":10,"left_children":[1,3,5,7,9,11,13,15,17,19,21,-1,23,25,27,29,31,33,35,37,39,41,43,45,47,49,51,53,55,57,-1,59,61,-1,63,65,67,69,-1,71,73,-1,75,77,79,81,83,85,87,89,91,93,95,97,99,101,103,-1,-1,-1,-1,-1,-1,-1,-1,-1,-1,-1,-1,-1,-1,-1,-1,-1,-1,-1,-1,-1,-1,-1,-1,-1,-1,-1,-1,-1,-1,-1,-1,-1,-1,-1,-1,-1,-1,-1,-1,-1,-1,-1,-1,-1,-1,-1,-1],"loss_changes":[2.1212683E2,1.08155685E2,5.458349E1,7.654837E1,7.1538155E1,1.7401244E2,6.413835E1,1.4191864E1,1.760646E1,3.156659E1,1.1718864E0,0E0,1.1225553E1,4.8787735E1,1.5444946E0,6.8463135E-1,1.0364372E1,3.760317E1,1.290435E1,9.554291E-2,2.0415134E0,2.735448E-1,4.6134567E-1,1.0241905E1,1.6779575E0,2.438312E1,1.9633781E1,6.4033127E-1,5.607071E-1,2.283783E-1,0E0,2.2743645E0,8.289169E0,0E0,2.3830457E0,1.4771992E1,6.046678E0,2.0159292E-1,0E0,1.0627937E-1,1.32914E0,0E0,4.5696735E-2,1.1062355E0,1.2983799E-1,6.4404964E0,4.9339743E0,1.4540453E0,3.7580872E-1,7.1389713E0,2.1932575E1,1.7946697E1,4.9004135E0,2.3158646E-1,1.23031616E-1,6.123009E-1,2.0553398E-1,0E0,0E0,0E0,0E0,0E0,0E0,0E0,0E0,0E0,0E0,0E0,0E0,0E0,0E0,0E0,0E0,0E0,0E0,0E0,0E0,0E0,0E0,0E0,0E0,0E0,0E0,0E0,0E0,0E0,0E0,0E0,0E0,0E0,0E0,0E0,0E0,0E0,0E0,0E0,0E0,0E0,0E0,0E0,0E0,0E0,0E0,0E0,0E0],"parents":[2147483647,0,0,1,1,2,2,3,3,4,4,5,5,6,6,7,7,8,8,9,9,10,10,12,12,13,13,14,14,15,15,16,16,17,17,18,18,19,19,20,20,21,21,22,22,23,23,24,24,25,25,26,26,27,27,28,28,29,29,31,31,32,32,34,34,35,35,36,36,37,37,39,39,40,40,42,42,43,43,44,44,45,45,46,46,47,47,48,48,49,49,50,50,51,51,52,52,53,53,54,54,55,55,56,56],"right_children":[2,4,6,8,10,12,14,16,18,20,22,-1,24,26,28,30,32,34,36,38,40,42,44,46,48,50,52,54,56,58,-1,60,62,-1,64,66,68,70,-1,72,74,-1,76,78,80,82,84,86,88,90,92,94,96,98,100,102,104,-1,-1,-1,-1,-1,-1,-1,-1,-1,-1,-1,-1,-1,-1,-1,-1,-1,-1,-1,-1,-1,-1,-1,-1,-1,-1,-1,-1,-1,-1,-1,-1,-1,-1,-1,-1,-1,-1,-1,-1,-1,-1,-1,-1,-1,-1,-1,-1],"split_conditions":[6.915884E-2,8.4203875E-1,8.1403786E-1,3.3610646E-2,5.299577E-1,8.1128895E-1,7.489469E-1,7.919718E-3,8.1403786E-1,4.895719E-2,-2.5674691E-2,-4.0651917E-2,1.7421886E-1,1.3969214E-1,1.129085E-1,3.2453604E-2,9.1871744E-1,8.1128895E-1,6.0365625E-2,8.0036706E-1,5.0807152E-2,-7.2708175E-2,1.1E1,8.7447345E-1,2.5483084E-1,1.1E1,2.3156315E-1,9.283909E-1,2.025843E-1,1.2025866E-2,-7.0247697E-3,8.1508005E-1,2.8865252E-2,-4.103529E-2,9E0,9E0,8.818887E-1,-1.7250882E-2,-3.975727E-2,3.563541E-1,6.829337E-2,6.206126E-4,1.1E1,8E0,1.4E1,1.1E1,8.0036706E-1,8.30308E-1,1.1E1,6.915895E-2,9.69927E-2,9.4554996E-1,3.4056792E-1,8.200986E-2,9.967706E-2,1.3026415E-1,8E0,-4.118424E-2,-3.2248277E-2,-4.1125536E-2,-1.4180484E-2,-1.5214919E-2,-3.904123E-2,-1.13211265E-2,-3.2408765E-4,-1.952756E-2,-2.6047362E-3,1.1570183E-2,-5.0395518E-3,-1.0352688E-2,-3.1126618E-2,-5.1400634E-6,-1.5945463E-2,-1.2379385E-3,-2.8558811E-2,1.214747E-2,3.2081064E-3,1.6352158E-2,2.3592344E-2,5.911278E-3,1.3298901E-2,6.3760504E-3,-4.428244E-3,-5.886289E-3,-3.4517158E-2,5.597992E-3,1.3429575E-2,2.2191312E-2,1.4991191E-2,-2.3640798E-2,3.8091193E-3,-3.9255112E-2,-5.6883097E-3,4.5800367E-3,1.6051177E-2,1.7392995E-2,3.5893075E-2,1.5559012E-2,2.0950442E-2,2.6615256E-2,2.1036685E-2,2.819401E-2,2.2274053E-2,2.5484582E-2,3.4689557E-2],"split_indices":[0,4,5,1,5,4,4,0,5,1,0,0,0,1,0,1,5,4,1,6,0,1,2,4,0,2,1,4,0,1,0,4,0,0,2,2,5,0,0,5,1,0,2,2,2,2,6,6,2,1,0,6,0,0,1,0,2,0,0,0,0,0,0,0,0,0,0,0,0,0,0,0,0,0,0,0,0,0,0,0,0,0,0,0,0,0,0,0,0,0,0,0,0,0,0,0,0,0,0,0,0,0,0,0,0],"split_type":[0,0,0,0,0,0,0,0,0,0,0,0,0,0,0,0,0,0,0,0,0,0,0,0,0,0,0,0,0,0,0,0,0,0,0,0,0,0,0,0,0,0,0,0,0,0,0,0,0,0,0,0,0,0,0,0,0,0,0,0,0,0,0,0,0,0,0,0,0,0,0,0,0,0,0,0,0,0,0,0,0,0,0,0,0,0,0,0,0,0,0,0,0,0,0,0,0,0,0,0,0,0,0,0,0],"sum_hessian":[9.321595E3,3.1762717E3,6.1453228E3,2.3270146E3,8.4925714E2,1.3664183E3,4.7789043E3,6.215823E2,1.7054323E3,3.1646402E2,5.3279315E2,2.5390465E2,1.1125137E3,4.2232383E3,5.556662E2,2.5982388E2,3.617584E2,3.5365402E2,1.3517782E3,9.199325E1,2.2447078E2,1.2332176E2,4.0947137E2,7.6245306E2,3.5006067E2,2.0026749E3,2.2205632E3,2.3826466E2,3.1740158E2,2.5779526E2,2.028632E0,9.728413E1,2.6447427E2,1.3592181E2,2.177322E2,5.700738E2,7.8170447E2,1.1202764E1,8.079048E1,3.1675306E1,1.9279547E2,5.643925E0,1.1767784E2,3.7530994E2,3.416144E1,7.000239E2,6.2429115E1,2.5091919E2,9.914149E1,1.5002126E3,5.0246228E2,1.6161871E3,6.04376E2,1.27147316E2,1.1111735E2,2.4918979E2,6.8211784E1,2.2769185E2,3.0103413E1,8.719216E1,1.0091963E1,2.2084319E2,4.3631092E1,1.4267175E2,7.506045E1,3.7263184E2,1.9744197E2,5.833857E1,7.2336584E2,2.8762476E0,8.326516E0,1.0821327E0,3.0593174E1,1.8923216E2,3.5633054E0,1.1536972E2,2.3081183E0,3.0346002E2,7.184991E1,1.135857E1,2.2802872E1,5.122001E2,1.8782388E2,3.7889584E1,2.453953E1,1.0164761E2,1.4927158E2,3.994515E1,5.919634E1,2.3087402E1,1.4771252E3,5.3665264E1,4.48797E2,1.1276052E3,4.885819E2,5.6601373E2,3.8362267E1,7.772768E1,4.9419636E1,4.712373E1,6.3993618E1,1.0491517E2,1.4427461E2,2.990976E1,3.8302025E1],"tree_param":{"num_deleted":"0","num_feature":"7","num_nodes":"105","size_leaf_vector":"1"}},{"base_weights":[-1.2351904E-9,-1.5362294E-1,1.4273648E-1,-3.8496736E-1,-4.757239E-2,9.110174E-2,2.8997844E-1,-4.0372167E-2,-2.617535E-1,-2.4954708E-1,3.822114E-2,5.8200974E-2,3.517315E-1,1.3424106E-1,3.370343E-1,-5.859144E-1,-1.5984641E-1,-6.2254155E-1,-1.22909024E-1,-1.2174981E-1,3.0078906E-1,1.2866482E-1,-6.2543616E-2,-8.459212E-2,4.6714568E-1,-3.80023E-2,2.648459E-1,4.9422383E-1,2.97424E-1,-4.026103E-2,-4.7357294E-1,-1.1798574E-1,-4.6458566E-1,-7.5428325E-1,-4.6302935E-1,-9.814521E-2,-6.5975356E-1,-3.8213897E-1,-3.433964E-2,1.5431516E-1,3.272945E-1,-3.1928577E-2,1.7421877E-1,-3.2617727E-1,6.693809E-2,-5.482162E-1,-2.3905452E-2,4.4465443E-1,5.575955E-1,1.109097E-1,3.156424E-1,6.176521E-1,3.0690995E-1,2.687398E-1,5.987277E-1,-1.4827807E-2,-3.2025274E-2,-8.40584E-3,1.2377187E-2,-3.9473772E-2,-1.4900814E-2,-3.958794E-2,-3.047869E-2,-1.3656442E-2,-3.0856237E-2,-1.1649605E-4,-8.749015E-3,-6.8789027E-3,-3.5832062E-2,-2.680775E-2,-1.1457414E-2,2.0084721E-4,-2.3154505E-2,-2.4029494E-3,1.17591405E-2,1.3636112E-2,1.8517252E-2,-6.8251216E-3,4.980996E-3,-1.16357105E-2,9.923453E-3,-3.5486903E-2,-6.7129093E-3,-2.5686156E-3,1.4767853E-2,-3.025258E-2,-1.4374738E-3,7.8124627E-3,-7.4512847E-3,2.3333346E-2,1.8618627E-2,1.8761225E-2,3.2693066E-2,2.9985883E-4,1.8241791E-2,1.628526E-2,-8.196649E-3,3.7433166E-2,1.3161686E-2,8.353638E-3,2.797235E-2,1.1092979E-2,2.0467358E-2,1.4555523E-2,3.0677665E-2],"categories":[],"categories_nodes":[],"categories_segments":[],"categories_sizes":[],"default_left":[0,0,0,0,0,0,0,0,0,0,0,0,0,0,0,0,0,0,0,0,0,0,0,0,0,0,0,0,0,0,0,0,0,0,0,0,0,0,0,0,0,0,0,0,0,0,0,0,0,0,0,0,0,0,0,0,0,0,0,0,0,0,0,0,0,0,0,0,0,0,0,0,0,0,0,0,0,0,0,0,0,0,0,0,0,0,0,0,0,0,0,0,0,0,0,0,0,0,0,0,0,0,0,0,0],"id":11,"left_children":[1,3,5,7,9,11,13,-1,15,17,19,21,23,25,27,29,31,33,35,37,39,41,43,45,47,-1,49,51,53,-1,55,57,59,61,63,65,67,69,71,73,75,77,79,81,83,85,87,89,91,93,95,97,99,101,103,-1,-1,-1,-1,-1,-1,-1,-1,-1,-1,-1,-1,-1,-1,-1,-1,-1,-1,-1,-1,-1,-1,-1,-1,-1,-1,-1,-1,-1,-1,-1,-1,-1,-1,-1,-1,-1,-1,-1,-1,-1,-1,-1,-1,-1,-1,-1,-1,-1,-1],"loss_changes":[2.0360977E2,1.097042E2,3.6568306E1,7.295581E1,5.3166145E1,3.0549871E1,9.109589E0,0E0,3.5903305E1,4.3129803E1,9.050933E1,2.6950638E1,2.0152443E1,3.4251762E1,5.822197E0,6.030632E0,1.0538626E1,4.5176163E0,9.0299835E0,3.0467628E1,3.1165695E0,1.4637119E1,3.988064E1,2.3613944E0,3.9492035E-1,0E0,1.9599056E0,4.2366943E0,6.478836E0,0E0,4.9672585E0,1.344542E1,5.1739445E0,1.9660187E-1,2.972723E0,4.8225417E0,7.922859E-1,7.8053894E0,1.6508362E1,2.0879264E0,1.5197449E0,6.1050925E0,1.5423138E1,2.8228287E1,2.119931E1,2.6965785E-1,1.7289981E0,2.3675156E-1,7.903347E-1,1.7251685E0,9.7649956E-1,5.115608E0,2.662157E0,4.54504E0,1.2223244E-1,0E0,0E0,0E0,0E0,0E0,0E0,0E0,0E0,0E0,0E0,0E0,0E0,0E0,0E0,0E0,0E0,0E0,0E0,0E0,0E0,0E0,0E0,0E0,0E0,0E0,0E0,0E0,0E0,0E0,0E0,0E0,0E0,0E0,0E0,0E0,0E0,0E0,0E0,0E0,0E0,0E0,0E0,0E0,0E0,0E0,0E0,0E0,0E0,0E0,0E0],"parents":[2147483647,0,0,1,1,2,2,3,3,4,4,5,5,6,6,8,8,9,9,10,10,11,11,12,12,13,13,14,14,15,15,16,16,17,17,18,18,19,19,20,20,21,21,22,22,23,23,24,24,26,26,27,27,28,28,30,30,31,31,32,32,33,33,34,34,35,35,36,36,37,37,38,38,39,39,40,40,41,41,42,42,43,43,44,44,45,45,46,46,47,47,48,48,49,49,50,50,51,51,52,52,53,53,54,54],"right_children":[2,4,6,8,10,12,14,-1,16,18,20,22,24,26,28,30,32,34,36,38,40,42,44,46,48,-1,50,52,54,-1,56,58,60,62,64,66,68,70,72,74,76,78,80,82,84,86,88,90,92,94,96,98,100,102,104,-1,-1,-1,-1,-1,-1,-1,-1,-1,-1,-1,-1,-1,-1,-1,-1,-1,-1,-1,-1,-1,-1,-1,-1,-1,-1,-1,-1,-1,-1,-1,-1,-1,-1,-1,-1,-1,-1,-1,-1,-1,-1,-1,-1,-1,-1,-1,-1,-1,-1],"split_conditions":[1.0409699E-1,5.9182817E-1,1.9910514E-1,8.1403786E-1,7.612874E-1,8.4203875E-1,8.1403786E-1,-4.0372167E-2,3.966359E-2,4.9927216E-2,7.358888E-1,1.1E1,5.299577E-1,8.1128895E-1,9.1871744E-1,7.646368E-3,1.1E1,2.7395427E-2,1.1E1,4.9927216E-2,7.489469E-1,1.04096904E-1,1.5E1,4E0,1.5E1,-3.80023E-2,4E0,1.1E1,7.358888E-1,-4.026103E-2,3.917439E-1,1E1,9.847462E-2,1.8611243E-2,8.696528E-1,7.6878935E-1,1.2769832E-1,9E0,1.1E1,8.2537234E-2,2.4922831E-2,1.444044E-1,1.9460826E-1,1.657427E-1,1.497088E-1,1.9113745E-1,1.1E1,1.1E1,1.2909639E-1,2.535043E-1,9.7262007E-1,6.457456E-1,3.1697583E-1,2.7258277E-1,1.51174E-1,-1.4827807E-2,-3.2025274E-2,-8.40584E-3,1.2377187E-2,-3.9473772E-2,-1.4900814E-2,-3.958794E-2,-3.047869E-2,-1.3656442E-2,-3.0856237E-2,-1.1649605E-4,-8.749015E-3,-6.8789027E-3,-3.5832062E-2,-2.680775E-2,-1.1457414E-2,2.0084721E-4,-2.3154505E-2,-2.4029494E-3,1.17591405E-2,1.3636112E-2,1.8517252E-2,-6.8251216E-3,4.980996E-3,-1.16357105E-2,9.923453E-3,-3.5486903E-2,-6.7129093E-3,-2.5686156E-3,1.4767853E-2,-3.025258E-2,-1.4374738E-3,7.8124627E-3,-7.4512847E-3,2.3333346E-2,1.8618627E-2,1.8761225E-2,3.2693066E-2,2.9985883E-4,1.8241791E-2,1.628526E-2,-8.196649E-3,3.7433166E-2,1.3161686E-2,8.353638E-3,2.797235E-2,1.1092979E-2,2.0467358E-2,1.4555523E-2,3.0677665E-2],"split_indices":[1,4,0,5,5,4,5,0,1,1,4,2,5,4,5,1,2,1,2,1,4,0,2,3,2,0,3,2,4,0,4,2,0,1,6,6,5,2,2,0,0,1,4,1,0,1,2,2,1,1,4,4,1,0,1,0,0,0,0,0,0,0,0,0,0,0,0,0,0,0,0,0,0,0,0,0,0,0,0,0,0,0,0,0,0,0,0,0,0,0,0,0,0,0,0,0,0,0,0,0,0,0,0,0,0],"split_type":[0,0,0,0,0,0,0,0,0,0,0,0,0,0,0,0,0,0,0,0,0,0,0,0,0,0,0,0,0,0,0,0,0,0,0,0,0,0,0,0,0,0,0,0,0,0,0,0,0,0,0,0,0,0,0,0,0,0,0,0,0,0,0,0,0,0,0,0,0,0,0,0,0,0,0,0,0,0,0,0,0,0,0,0,0,0,0,0,0,0,0,0,0,0,0,0,0,0,0,0,0,0,0,0,0],"sum_hessian":[9.283548E3,4.4712266E3,4.8123213E3,1.4045768E3,3.06665E3,3.5640876E3,1.2482339E3,3.158921E2,1.0886847E3,9.13704E2,2.152946E3,3.1656882E3,3.983994E2,2.9053238E2,9.577015E2,2.5925595E2,8.294288E2,2.3059705E2,6.8310693E2,1.3381854E3,8.1476056E2,1.999032E3,1.1666561E3,8.339424E1,3.1500516E2,3.6409203E1,2.5412318E2,1.9044856E2,7.6725287E2,8.573047E1,1.735255E2,7.3047394E2,9.8954796E1,1.2424992E2,1.0634713E2,6.5411633E2,2.8990562E1,3.3547015E2,1.0027153E3,1.2589017E2,6.8887036E2,4.4180734E2,1.5572247E3,3.8376505E2,7.828911E2,8.722669E0,7.467157E1,2.570125E2,5.7992657E1,6.3840645E1,1.9028255E2,1.1341661E2,7.703195E1,7.022869E2,6.496597E1,8.5566475E1,8.795902E1,6.4284955E2,8.762443E1,3.2271107E1,6.668369E1,9.514001E1,2.9109913E1,4.8880894E1,5.7466236E1,2.9156174E2,3.625546E2,3.1838882E0,2.5806675E1,1.6592683E2,1.695433E2,9.2128644E2,8.142887E1,3.6058414E1,8.983175E1,3.0701855E2,3.8185184E2,2.4611874E2,1.9568858E2,8.709688E1,1.4701278E3,1.2708354E2,2.5668152E2,5.1626495E2,2.6662616E2,7.713926E0,1.0087428E0,3.0502983E1,4.416859E1,1.9283188E2,6.4180626E1,2.1727932E1,3.6264725E1,4.59001E1,1.7940544E1,1.866862E2,3.596341E0,8.1994774E1,3.142184E1,5.064816E1,2.6383795E1,5.286173E2,1.7366962E2,3.9358668E0,6.1030106E1],"tree_param":{"num_deleted":"0","num_feature":"7","num_nodes":"105","size_leaf_vector":"1"}},{"base_weights":[1.5609071E-9,-2.1660219E-1,9.751392E-2,-3.308601E-1,6.635296E-2,6.473796E-2,3.4164515E-1,-5.068773E-1,-1.7036627E-1,-3.1241995E-1,2.8792012E-1,-1.1532617E-2,1.8829751E-1,5.151446E-3,4.5542094E-1,-3.9881732E-2,-4.2194438E-1,-1.5155081E-1,-6.96409E-1,-7.46944E-1,-1.3410595E-1,2.3921031E-1,3.1382555E-1,4.187319E-2,-1.7899154E-1,4.5037645E-1,1.3513911E-1,-2.657249E-1,2.6102716E-1,3.3732906E-1,4.9548566E-1,-5.62334E-1,-2.3631774E-1,-3.4112948E-1,-9.632028E-2,-3.893475E-2,-3.2202584E-1,-5.252771E-1,-3.8561344E-2,6.735172E-2,-1.6951998E-1,3.4847865E-1,2.3042402E-1,2.90063E-1,4.0516627E-1,-8.51217E-2,7.7487364E-2,-5.5773544E-1,-1.0109125E-1,6.787972E-1,1.6984925E-1,-5.5596385E-2,1.8628375E-1,-6.486827E-1,-1.4721146E-1,2.7929395E-1,-6.711052E-3,5.473195E-1,3.1027085E-1,4.727866E-1,6.523024E-1,-1.0898465E-2,-3.6923345E-2,-8.67161E-3,-3.958232E-2,-3.9113615E-2,-7.470377E-3,-2.05221E-2,-2.963679E-3,-1.7917287E-2,-2.9599068E-3,-1.08511085E-2,-2.9911164E-2,8.417699E-3,-2.5518289E-2,-1.7313963E-2,-6.847761E-3,5.0321887E-3,1.812895E-2,6.1219973E-3,1.18070915E-2,1.9524118E-2,1.32365E-2,2.3545561E-2,9.72709E-3,-3.9839067E-2,4.4801175E-3,-1.3586562E-3,6.032805E-3,-3.9823707E-2,-1.8217986E-2,-3.0387927E-2,-1.0086275E-3,9.641513E-3,4.109412E-2,-3.5822265E-2,1.0939999E-2,-9.5441025E-3,4.1277152E-3,2.7706651E-2,8.448776E-3,4.030145E-3,-3.4436382E-2,-2.8824372E-2,-3.7285069E-3,1.8220043E-2,1.0634615E-2,9.251718E-3,3.3158403E-2,2.5603408E-2,1.4423641E-2,2.8664056E-2,2.2686876E-2,2.6291305E-2,3.6322497E-2],"categories":[],"categories_nodes":[],"categories_segments":[],"categories_sizes":[],"default_left":[0,0,0,0,0,0,0,0,0,0,0,0,0,0,0,0,0,0,0,0,0,0,0,0,0,0,0,0,0,0,0,0,0,0,0,0,0,0,0,0,0,0,0,0,0,0,0,0,0,0,0,0,0,0,0,0,0,0,0,0,0,0,0,0,0,0,0,0,0,0,0,0,0,0,0,0,0,0,0,0,0,0,0,0,0,0,0,0,0,0,0,0,0,0,0,0,0,0,0,0,0,0,0,0,0,0,0,0,0,0,0,0,0,0,0],"id":12,"left_children":[1,3,5,7,9,11,13,15,17,19,21,23,25,27,29,-1,31,33,35,37,39,41,43,45,47,49,51,53,55,57,59,61,63,65,67,-1,69,71,-1,73,75,77,79,81,83,85,87,89,91,93,95,97,99,101,103,105,-1,107,109,111,113,-1,-1,-1,-1,-1,-1,-1,-1,-1,-1,-1,-1,-1,-1,-1,-1,-1,-1,-1,-1,-1,-1,-1,-1,-1,-1,-1,-1,-1,-1,-1,-1,-1,-1,-1,-1,-1,-1,-1,-1,-1,-1,-1,-1,-1,-1,-1,-1,-1,-1,-1,-1,-1,-1],"loss_changes":[1.9534059E2,9.284235E1,5.1006573E1,5.7694275E1,6.9468376E1,5.2999435E1,2.8887764E1,2.3740845E1,1.0498503E1,2.3576986E1,5.8374023E-1,3.1113909E1,2.9843315E1,1.3355461E1,2.500946E0,0E0,1.9586746E1,1.08108635E1,8.804226E-1,7.23114E-2,1.5659273E0,9.776783E-2,6.152992E-1,1.1937617E1,2.4763397E1,2.3051086E1,1.7432499E1,4.1530867E0,7.5282526E-1,6.596737E-1,1.1828308E0,2.5927734E1,1.1302361E1,1.9610998E1,9.324836E0,0E0,5.8222055E-2,1.3759112E-1,0E0,2.0285115E0,1.020895E0,4.926443E-3,7.8902245E-2,5.8716583E-1,8.386898E-1,7.197152E1,9.313765E0,6.3247757E0,2.864352E1,1.3674721E1,7.2542E0,7.088038E0,8.874336E0,6.930294E-1,2.2265558E0,4.611287E-1,0E0,5.217433E-1,4.3130302E-1,4.4741058E-1,9.008598E-2,0E0,0E0,0E0,0E0,0E0,0E0,0E0,0E0,0E0,0E0,0E0,0E0,0E0,0E0,0E0,0E0,0E0,0E0,0E0,0E0,0E0,0E0,0E0,0E0,0E0,0E0,0E0,0E0,0E0,0E0,0E0,0E0,0E0,0E0,0E0,0E0,0E0,0E0,0E0,0E0,0E0,0E0,0E0,0E0,0E0,0E0,0E0,0E0,0E0,0E0,0E0,0E0,0E0,0E0],"parents":[2147483647,0,0,1,1,2,2,3,3,4,4,5,5,6,6,7,7,8,8,9,9,10,10,11,11,12,12,13,13,14,14,16,16,17,17,18,18,19,19,20,20,21,21,22,22,23,23,24,24,25,25,26,26,27,27,28,28,29,29,30,30,31,31,32,32,33,33,34,34,36,36,37,37,39,39,40,40,41,41,42,42,43,43,44,44,45,45,46,46,47,47,48,48,49,49,50,50,51,51,52,52,53,53,54,54,55,55,57,57,58,58,59,59,60,60],"right_children":[2,4,6,8,10,12,14,16,18,20,22,24,26,28,30,-1,32,34,36,38,40,42,44,46,48,50,52,54,56,58,60,62,64,66,68,-1,70,72,-1,74,76,78,80,82,84,86,88,90,92,94,96,98,100,102,104,106,-1,108,110,112,114,-1,-1,-1,-1,-1,-1,-1,-1,-1,-1,-1,-1,-1,-1,-1,-1,-1,-1,-1,-1,-1,-1,-1,-1,-1,-1,-1,-1,-1,-1,-1,-1,-1,-1,-1,-1,-1,-1,-1,-1,-1,-1,-1,-1,-1,-1,-1,-1,-1,-1,-1,-1,-1,-1],"split_conditions":[6.58208E-2,8.4203875E-1,8.4203875E-1,4.9927216E-2,5.299577E-1,1.5427169E-1,5.299577E-1,7.646368E-3,1.1E1,4.7706455E-2,-6.860744E-3,1.1E1,3E0,1.7785983E-1,9.617364E-2,-3.9881732E-2,9E0,8.1403786E-1,9.091292E-2,8.0036706E-1,2E0,7E0,8E0,8.1403786E-1,1.0268889E-1,8E0,1.6916583E-1,4E0,9.7262007E-1,7.346152E-2,2.1771158E-1,6E0,1.1E1,8.1128895E-1,1.2025794E-2,-3.893475E-2,1.5966661E-1,-1.7250882E-2,-3.8561344E-2,5.9991363E-2,5.940582E-2,-2.5674691E-2,-6.9516666E-2,6E0,1.1E1,8.1128895E-1,8.245204E-2,9.69927E-2,1.5E1,2E0,1.5648127E-1,7.005055E-1,1.6948685E-1,6.70667E-2,9.5513895E-2,2.0990978E-1,-6.711052E-3,9.8525697E-1,6E0,8.523424E-1,8E0,-1.0898465E-2,-3.6923345E-2,-8.67161E-3,-3.958232E-2,-3.9113615E-2,-7.470377E-3,-2.05221E-2,-2.963679E-3,-1.7917287E-2,-2.9599068E-3,-1.08511085E-2,-2.9911164E-2,8.417699E-3,-2.5518289E-2,-1.7313963E-2,-6.847761E-3,5.0321887E-3,1.812895E-2,6.1219973E-3,1.18070915E-2,1.9524118E-2,1.32365E-2,2.3545561E-2,9.72709E-3,-3.9839067E-2,4.4801175E-3,-1.3586562E-3,6.032805E-3,-3.9823707E-2,-1.8217986E-2,-3.0387927E-2,-1.0086275E-3,9.641513E-3,4.109412E-2,-3.5822265E-2,1.0939999E-2,-9.5441025E-3,4.1277152E-3,2.7706651E-2,8.448776E-3,4.030145E-3,-3.4436382E-2,-2.8824372E-2,-3.7285069E-3,1.8220043E-2,1.0634615E-2,9.251718E-3,3.3158403E-2,2.5603408E-2,1.4423641E-2,2.8664056E-2,2.2686876E-2,2.6291305E-2,3.6322497E-2],"split_indices":[0,4,4,1,5,0,5,1,2,1,0,2,3,1,1,0,2,5,1,6,3,3,2,5,1,2,1,3,4,0,1,2,2,4,0,0,1,0,0,1,0,0,0,2,2,4,1,0,2,3,0,4,1,0,0,1,0,4,2,5,2,0,0,0,0,0,0,0,0,0,0,0,0,0,0,0,0,0,0,0,0,0,0,0,0,0,0,0,0,0,0,0,0,0,0,0,0,0,0,0,0,0,0,0,0,0,0,0,0,0,0,0,0,0,0],"split_type":[0,0,0,0,0,0,0,0,0,0,0,0,0,0,0,0,0,0,0,0,0,0,0,0,0,0,0,0,0,0,0,0,0,0,0,0,0,0,0,0,0,0,0,0,0,0,0,0,0,0,0,0,0,0,0,0,0,0,0,0,0,0,0,0,0,0,0,0,0,0,0,0,0,0,0,0,0,0,0,0,0,0,0,0,0,0,0,0,0,0,0,0,0,0,0,0,0,0,0,0,0,0,0,0,0,0,0,0,0,0,0,0,0,0,0],"sum_hessian":[9.246324E3,2.8700415E3,6.376283E3,2.0443564E3,8.25685E2,5.6226733E3,7.536097E2,9.7399554E2,1.0703608E3,3.0458374E2,5.2110126E2,3.4771885E3,2.1454849E3,1.9068907E2,5.629206E2,2.1829575E2,7.5569977E2,1.034642E3,3.5718914E1,8.769514E1,2.1688861E2,1.844726E2,3.3662866E2,2.6369617E3,8.4022687E2,3.6053262E2,1.7849521E3,9.261066E1,9.8078415E1,1.4498697E2,4.1793365E2,4.291237E2,3.2657608E2,2.3225409E2,8.023879E2,2.8397469E1,7.321444E0,1.0892673E1,7.680247E1,3.229158E1,1.8459705E2,1.085206E1,1.7362053E2,2.7044672E2,6.6181946E1,5.772354E2,2.0597263E3,1.4228603E2,6.979408E2,1.9793958E2,1.6259305E2,3.77403E2,1.4075491E3,2.0829584E1,7.178107E1,9.402627E1,4.0521483E0,1.4354989E1,1.3063199E2,3.6859485E2,4.933881E1,1.4596976E2,2.8315393E2,2.9453516E2,3.2040928E1,6.9426605E1,1.6282748E2,8.358503E1,7.1880286E2,6.113238E0,1.2082063E0,2.8450792E0,8.047593E0,2.8089315E1,4.2022624E0,2.7219246E1,1.5737779E2,1.0222445E0,9.829816E0,9.858121E0,1.6376242E2,5.1578106E1,2.188686E2,4.9496258E1,1.6685694E1,1.1308292E2,4.6415247E2,6.0158453E2,1.4581418E3,6.227879E1,8.000724E1,9.521947E1,6.027214E2,4.5557663E1,1.5238191E2,7.796405E0,1.5479665E2,1.9048586E2,1.8691718E2,6.185873E1,1.3456904E3,1.0314952E0,1.9798088E1,9.384865E0,6.2396206E1,3.9315556E1,5.471071E1,4.107403E0,1.0247586E1,1.054246E1,1.2008952E2,5.4098717E1,3.1449612E2,2.1225418E1,2.8113394E1],"tree_param":{"num_deleted":"0","num_feature":"7","num_nodes":"115","size_leaf_vector":"1"}},{"base_weights":[3.141061E-10,-1.468614E-1,1.3556787E-1,-3.8374874E-1,-4.009387E-2,-3.781095E-2,1.824536E-1,-3.930458E-2,-2.6936772E-1,-1.2648049E-1,1.0056204E-1,-3.9213594E-2,1.3113281E-1,1.5015565E-1,4.6931723E-1,-4.884458E-1,-1.3845454E-1,-4.7457892E-1,-6.597396E-2,-2.0852661E-1,3.1248298E-1,7.5216204E-2,2.74452E-1,1.06691204E-1,3.607453E-1,4.208914E-1,5.689285E-1,-3.9126005E-2,-4.1200677E-1,2.75847E-1,-1.6062604E-1,-3.928915E-2,-4.0043753E-1,-3.6508355E-2,-5.0596607E-1,-7.317299E-1,-8.575361E-2,1.8838955E-1,3.5448226E-1,1.395343E-1,-7.7184446E-2,2.3807397E-1,4.3067855E-1,1.7193249E-1,-1.1705707E-3,3.0169922E-1,5.6005985E-1,3.8572633E-1,5.5757225E-1,2.5994552E-2,3.207774E-2,-2.588973E-2,-1.2340783E-2,4.9822773E-3,1.7891636E-2,-4.7686035E-3,-1.6779989E-2,-2.463064E-2,-1.2552226E-2,-1.2208021E-2,3.854029E-4,-3.9886743E-2,-6.569171E-3,-1.1854427E-2,-3.7115656E-2,-3.2646772E-3,-2.6667643E-2,7.2205253E-3,1.2306765E-2,1.876237E-2,1.1268722E-2,-6.0354206E-3,8.939881E-3,4.6674144E-3,-1.0132291E-2,2.2003023E-2,1.0459474E-2,8.876223E-3,2.2686945E-2,5.0786003E-3,1.3174488E-2,-6.7880363E-3,4.35515E-3,1.7840903E-2,8.706339E-3,3.1583954E-2,2.0980362E-2,2.099556E-2,7.4612643E-3,1.2768124E-2,2.957894E-2],"categories":[],"categories_nodes":[],"categories_segments":[],"categories_sizes":[],"default_left":[0,0,0,0,0,0,0,0,0,0,0,0,0,0,0,0,0,0,0,0,0,0,0,0,0,0,0,0,0,0,0,0,0,0,0,0,0,0,0,0,0,0,0,0,0,0,0,0,0,0,0,0,0,0,0,0,0,0,0,0,0,0,0,0,0,0,0,0,0,0,0,0,0,0,0,0,0,0,0,0,0,0,0,0,0,0,0,0,0,0,0],"id":13,"left_children":[1,3,5,7,9,11,13,-1,15,17,19,-1,21,23,25,27,29,31,33,35,37,39,41,43,45,47,49,-1,51,53,55,-1,57,59,61,63,65,67,69,71,73,75,77,79,81,83,85,87,89,-1,-1,-1,-1,-1,-1,-1,-1,-1,-1,-1,-1,-1,-1,-1,-1,-1,-1,-1,-1,-1,-1,-1,-1,-1,-1,-1,-1,-1,-1,-1,-1,-1,-1,-1,-1,-1,-1,-1,-1,-1,-1],"loss_changes":[1.8352072E2,1.1188945E2,3.897017E1,6.304367E1,3.7085102E1,1.2887334E2,3.4887024E1,0E0,3.0670998E1,3.978885E1,7.614167E1,0E0,6.6589937E0,3.1015274E1,1.6000595E0,8.680275E0,6.2196045E0,6.141178E0,2.0877872E1,3.032134E1,3.5263672E0,5.901392E0,1.224781E0,1.9800106E1,6.6570435E0,1.0367241E0,1.0060501E-1,0E0,5.463997E0,4.629829E-1,7.2611465E0,0E0,3.0160255E0,1.3881834E1,1.0943136E1,2.9392624E-1,3.4840617E0,4.1260624E-1,1.2933044E0,4.3433676E0,3.8485813E0,1.026226E0,1.6974926E-1,1.1267532E1,1.2622589E1,3.099453E0,1.0565948E0,1.6383095E0,3.7358284E-1,0E0,0E0,0E0,0E0,0E0,0E0,0E0,0E0,0E0,0E0,0E0,0E0,0E0,0E0,0E0,0E0,0E0,0E0,0E0,0E0,0E0,0E0,0E0,0E0,0E0,0E0,0E0,0E0,0E0,0E0,0E0,0E0,0E0,0E0,0E0,0E0,0E0,0E0,0E0,0E0,0E0,0E0],"parents":[2147483647,0,0,1,1,2,2,3,3,4,4,5,5,6,6,8,8,9,9,10,10,12,12,13,13,14,14,15,15,16,16,17,17,18,18,19,19,20,20,21,21,22,22,23,23,24,24,25,25,26,26,28,28,29,29,30,30,32,32,33,33,34,34,35,35,36,36,37,37,38,38,39,39,40,40,41,41,42,42,43,43,44,44,45,45,46,46,47,47,48,48],"right_children":[2,4,6,8,10,12,14,-1,16,18,20,-1,22,24,26,28,30,32,34,36,38,40,42,44,46,48,50,-1,52,54,56,-1,58,60,62,64,66,68,70,72,74,76,78,80,82,84,86,88,90,-1,-1,-1,-1,-1,-1,-1,-1,-1,-1,-1,-1,-1,-1,-1,-1,-1,-1,-1,-1,-1,-1,-1,-1,-1,-1,-1,-1,-1,-1,-1,-1,-1,-1,-1,-1,-1,-1,-1,-1,-1,-1],"split_conditions":[1.0409699E-1,5.9182817E-1,8.1403786E-1,8.1403786E-1,8.298231E-1,8.1128895E-1,7.489469E-1,-3.930458E-2,5.9991363E-2,2.1485161E-2,5.299577E-1,-3.9213594E-2,2.086071E-1,2.3580326E-1,1.7097284E-1,7.646368E-3,1E0,7.646368E-3,1.1E1,4.895719E-2,7.029499E-3,8.298231E-1,2.8750408E-1,1.1E1,2.967934E-1,1.5E1,2.2087829E-1,-3.9126005E-2,8E0,7.5317964E-2,3.917439E-1,-3.928915E-2,9E0,5.0885618E-2,9.69927E-2,8.4203875E-1,1.1E1,8E0,1.1E1,1.2248011E-1,1.1E1,2.0985709E-1,2.2859137E-1,1.4216751E-1,1.4E1,1.2E1,9.619784E-1,1.3E1,1.1358903E-1,2.5994552E-2,3.207774E-2,-2.588973E-2,-1.2340783E-2,4.9822773E-3,1.7891636E-2,-4.7686035E-3,-1.6779989E-2,-2.463064E-2,-1.2552226E-2,-1.2208021E-2,3.854029E-4,-3.9886743E-2,-6.569171E-3,-1.1854427E-2,-3.7115656E-2,-3.2646772E-3,-2.6667643E-2,7.2205253E-3,1.2306765E-2,1.876237E-2,1.1268722E-2,-6.0354206E-3,8.939881E-3,4.6674144E-3,-1.0132291E-2,2.2003023E-2,1.0459474E-2,8.876223E-3,2.2686945E-2,5.0786003E-3,1.3174488E-2,-6.7880363E-3,4.35515E-3,1.7840903E-2,8.706339E-3,3.1583954E-2,2.0980362E-2,2.099556E-2,7.4612643E-3,1.2768124E-2,2.957894E-2],"split_indices":[1,4,5,5,4,4,4,0,1,0,5,0,0,1,1,1,3,1,2,1,1,4,0,2,0,2,1,0,2,0,4,0,2,1,0,4,2,2,2,1,2,0,1,0,2,2,5,2,0,0,0,0,0,0,0,0,0,0,0,0,0,0,0,0,0,0,0,0,0,0,0,0,0,0,0,0,0,0,0,0,0,0,0,0,0,0,0,0,0,0,0],"split_type":[0,0,0,0,0,0,0,0,0,0,0,0,0,0,0,0,0,0,0,0,0,0,0,0,0,0,0,0,0,0,0,0,0,0,0,0,0,0,0,0,0,0,0,0,0,0,0,0,0,0,0,0,0,0,0,0,0,0,0,0,0,0,0,0,0,0,0,0,0,0,0,0,0,0,0,0,0,0,0,0,0,0,0,0,0,0,0,0,0,0,0],"sum_hessian":[9.215659E3,4.423536E3,4.7921235E3,1.3735089E3,3.050027E3,1.0200972E3,3.7720264E3,3.0273743E2,1.0707715E3,1.8895953E3,1.1604316E3,1.8759326E2,8.3250397E2,3.3916807E3,3.803456E2,3.9949738E2,6.712742E2,2.7879932E2,1.610796E3,4.7201276E2,6.8841895E2,5.9995404E2,2.325499E2,2.8126692E3,5.790115E2,2.594432E2,1.2090241E2,8.0512924E1,3.1898444E2,3.3517467E1,6.3775665E2,5.17949E1,2.2700443E2,1.5107091E3,1.0008692E2,8.8767136E1,3.8324564E2,1.7546513E2,5.129538E2,4.2195822E2,1.7799582E2,1.9067442E2,4.1875477E1,1.7522244E3,1.0604448E3,4.486226E2,1.303889E2,2.0939294E2,5.0050247E1,7.704192E1,4.386049E1,1.9315445E2,1.2583E2,1.1346746E1,2.2170721E1,4.6564578E2,1.721109E2,1.3896552E2,8.803891E1,2.6441656E2,1.2462926E3,5.5627808E1,4.445911E1,2.349666E0,8.6417465E1,3.6758878E2,1.5656861E1,1.0159294E2,7.387219E1,4.4024094E2,7.271287E1,5.5044094E1,3.6691412E2,7.5554596E1,1.0244123E2,2.2074482E1,1.6859993E2,4.222258E0,3.7653217E1,9.919975E2,7.602269E2,4.19816E2,6.4062885E2,3.1201614E2,1.3660645E2,8.403869E1,4.635022E1,1.8227121E2,2.7121742E1,5.9229856E0,4.4127262E1],"tree_param":{"num_deleted":"0","num_feature":"7","num_nodes":"91","size_leaf_vector":"1"}},{"base_weights":[2.8694236E-9,-2.091613E-1,9.4416626E-2,-3.181601E-1,5.7590593E-2,6.235232E-2,3.412592E-1,-5.600476E-1,-2.183542E-1,-2.8743118E-1,2.580142E-1,2.0077044E-2,2.7598387E-1,-2.8063308E-3,4.6002814E-1,-7.60812E-1,-4.253901E-1,-2.5146815E-1,1.13533966E-1,-3.643613E-2,-1.17441304E-1,9.300357E-2,2.9381227E-1,7.471609E-2,-1.05900995E-1,4.9190506E-1,2.3646972E-1,-2.4538322E-1,2.1232459E-1,4.3835816E-1,5.871784E-1,-7.655242E-1,-5.969999E-3,-7.0322436E-1,-3.2978752E-1,-2.3381191E-1,-7.4698144E-1,-4.7670642E-1,1.4556304E-1,-1.08295806E-1,-2.5950924E-2,2.0638674E-1,4.791895E-2,3.0603504E-1,1.5265897E-1,2.5000313E-2,1.8139602E-1,-3.6289725E-1,-2.6393866E-2,6.7207885E-1,2.3264362E-1,1.8235557E-1,3.8958716E-1,-6.2662756E-1,-1.24682054E-1,2.5358588E-1,2.937416E-2,5.3432345E-1,4.263784E-1,1.2394892E-2,2.9656714E-2,-3.897234E-2,-3.06866E-2,-3.90176E-2,-3.0709829E-3,-1.3105701E-2,-3.7418958E-2,-1.536374E-2,-2.365753E-3,-3.8641803E-2,-1.5393637E-2,-3.2183483E-2,7.1420334E-3,-2.8174527E-3,1.3136849E-2,-2.6121859E-2,-5.0256327E-3,5.8638933E-3,1.1973398E-2,1.776661E-3,8.466291E-3,1.396846E-2,2.0037374E-2,6.491636E-3,1.4511488E-2,2.2988893E-4,8.527959E-3,5.190362E-3,1.8072037E-2,-3.7355125E-2,-1.45974355E-2,-1.1736874E-2,4.801727E-3,1.4292225E-2,4.0060233E-2,1.7485375E-3,2.2076076E-2,3.853085E-3,1.0827511E-2,1.7512085E-2,3.369134E-2,4.5861113E-3,-3.3581186E-2,-2.7722374E-2,-2.5753742E-3,4.005519E-3,1.4236952E-2,-1.3879358E-2,5.317993E-3,1.6251173E-2,3.2308135E-2,2.3255168E-2,1.9362507E-2],"categories":[],"categories_nodes":[],"categories_segments":[],"categories_sizes":[],"default_left":[0,0,0,0,0,0,0,0,0,0,0,0,0,0,0,0,0,0,0,0,0,0,0,0,0,0,0,0,0,0,0,0,0,0,0,0,0,0,0,0,0,0,0,0,0,0,0,0,0,0,0,0,0,0,0,0,0,0,0,0,0,0,0,0,0,0,0,0,0,0,0,0,0,0,0,0,0,0,0,0,0,0,0,0,0,0,0,0,0,0,0,0,0,0,0,0,0,0,0,0,0,0,0,0,0,0,0,0,0,0,0,0,0],"id":14,"left_children":[1,3,5,7,9,11,13,15,17,19,21,23,25,27,29,31,33,35,37,-1,39,41,43,45,47,49,51,53,55,57,59,61,-1,63,65,67,69,71,73,75,-1,77,79,81,83,85,87,89,91,93,95,97,99,101,103,105,107,109,111,-1,-1,-1,-1,-1,-1,-1,-1,-1,-1,-1,-1,-1,-1,-1,-1,-1,-1,-1,-1,-1,-1,-1,-1,-1,-1,-1,-1,-1,-1,-1,-1,-1,-1,-1,-1,-1,-1,-1,-1,-1,-1,-1,-1,-1,-1,-1,-1,-1,-1,-1,-1,-1,-1],"loss_changes":[1.8141676E2,8.309041E1,5.007445E1,4.8848404E1,5.7444397E1,5.0596302E1,2.9726982E1,1.5676865E1,1.5827988E1,2.2818386E1,3.0757637E0,3.221089E1,7.7801056E0,9.845279E0,1.232605E0,6.229248E-1,9.237862E0,1.1264458E1,2.5480433E0,0E0,7.576828E-1,4.76304E-1,6.972351E-1,1.730515E1,2.8917343E1,6.488201E0,6.4272537E0,4.002046E0,7.473717E-1,3.0786896E-1,6.126404E-3,1.7074585E-2,0E0,4.4263916E0,7.371029E0,1.730246E1,2.6761436E-1,8.1421673E-1,2.9752254E0,6.4997625E-1,0E0,5.0791025E-2,9.8272175E-2,8.877945E-1,7.649374E-2,6.614051E0,1.4453331E1,8.897602E0,2.7628448E1,3.9300385E0,2.4557996E0,2.0764656E0,2.0444908E0,7.427492E-1,2.1285868E0,4.1742468E-1,4.9110776E-1,9.0802E-1,4.5508575E-1,0E0,0E0,0E0,0E0,0E0,0E0,0E0,0E0,0E0,0E0,0E0,0E0,0E0,0E0,0E0,0E0,0E0,0E0,0E0,0E0,0E0,0E0,0E0,0E0,0E0,0E0,0E0,0E0,0E0,0E0,0E0,0E0,0E0,0E0,0E0,0E0,0E0,0E0,0E0,0E0,0E0,0E0,0E0,0E0,0E0,0E0,0E0,0E0,0E0,0E0,0E0,0E0,0E0,0E0],"parents":[2147483647,0,0,1,1,2,2,3,3,4,4,5,5,6,6,7,7,8,8,9,9,10,10,11,11,12,12,13,13,14,14,15,15,16,16,17,17,18,18,20,20,21,21,22,22,23,23,24,24,25,25,26,26,27,27,28,28,29,29,30,30,31,31,33,33,34,34,35,35,36,36,37,37,38,38,39,39,41,41,42,42,43,43,44,44,45,45,46,46,47,47,48,48,49,49,50,50,51,51,52,52,53,53,54,54,55,55,56,56,57,57,58,58],"right_children":[2,4,6,8,10,12,14,16,18,20,22,24,26,28,30,32,34,36,38,-1,40,42,44,46,48,50,52,54,56,58,60,62,-1,64,66,68,70,72,74,76,-1,78,80,82,84,86,88,90,92,94,96,98,100,102,104,106,108,110,112,-1,-1,-1,-1,-1,-1,-1,-1,-1,-1,-1,-1,-1,-1,-1,-1,-1,-1,-1,-1,-1,-1,-1,-1,-1,-1,-1,-1,-1,-1,-1,-1,-1,-1,-1,-1,-1,-1,-1,-1,-1,-1,-1,-1,-1,-1,-1,-1,-1,-1,-1,-1,-1,-1],"split_conditions":[6.58208E-2,8.4203875E-1,8.4203875E-1,3.3610646E-2,5.299577E-1,2.0985709E-1,5.299577E-1,7.919718E-3,1.2611426E-1,5.0885618E-2,-4.9338102E-2,1.1E1,3E0,1.7785983E-1,1.9570112E-1,3.2453604E-2,9.1871744E-1,1.1E1,8.1403786E-1,-3.643613E-2,7.119846E-2,-5.489526E-2,1.2E1,1.4216772E-1,1.1682705E-1,1E1,2.8439033E-1,4E0,9.5282227E-1,8.523424E-1,1.4369732E-1,1.6622938E-2,-5.969999E-3,8.1508005E-1,2.9561773E-2,9E0,9.091292E-2,7.978096E-1,3.038979E-2,3E0,-2.5950924E-2,-6.9516666E-2,-4.4739734E-2,8E0,3.7601016E-2,8E0,9.4554996E-1,8.1403786E-1,1.4E1,2E0,3.1697583E-1,8.1403786E-1,3.4056792E-1,6.70667E-2,9.5513895E-2,1.9952266E-1,1.9910514E-1,1E1,7E0,1.2394892E-2,2.9656714E-2,-3.897234E-2,-3.06866E-2,-3.90176E-2,-3.0709829E-3,-1.3105701E-2,-3.7418958E-2,-1.536374E-2,-2.365753E-3,-3.8641803E-2,-1.5393637E-2,-3.2183483E-2,7.1420334E-3,-2.8174527E-3,1.3136849E-2,-2.6121859E-2,-5.0256327E-3,5.8638933E-3,1.1973398E-2,1.776661E-3,8.466291E-3,1.396846E-2,2.0037374E-2,6.491636E-3,1.4511488E-2,2.2988893E-4,8.527959E-3,5.190362E-3,1.8072037E-2,-3.7355125E-2,-1.45974355E-2,-1.1736874E-2,4.801727E-3,1.4292225E-2,4.0060233E-2,1.7485375E-3,2.2076076E-2,3.853085E-3,1.0827511E-2,1.7512085E-2,3.369134E-2,4.5861113E-3,-3.3581186E-2,-2.7722374E-2,-2.5753742E-3,4.005519E-3,1.4236952E-2,-1.3879358E-2,5.317993E-3,1.6251173E-2,3.2308135E-2,2.3255168E-2,1.9362507E-2],"split_indices":[0,4,4,1,5,0,5,0,1,1,1,2,3,1,1,1,5,2,5,0,1,0,2,1,0,2,1,3,4,5,0,1,0,4,1,2,1,4,0,2,0,0,0,2,1,2,6,5,2,3,1,5,0,0,0,1,0,2,3,0,0,0,0,0,0,0,0,0,0,0,0,0,0,0,0,0,0,0,0,0,0,0,0,0,0,0,0,0,0,0,0,0,0,0,0,0,0,0,0,0,0,0,0,0,0,0,0,0,0,0,0,0,0],"split_type":[0,0,0,0,0,0,0,0,0,0,0,0,0,0,0,0,0,0,0,0,0,0,0,0,0,0,0,0,0,0,0,0,0,0,0,0,0,0,0,0,0,0,0,0,0,0,0,0,0,0,0,0,0,0,0,0,0,0,0,0,0,0,0,0,0,0,0,0,0,0,0,0,0,0,0,0,0,0,0,0,0,0,0,0,0,0,0,0,0,0,0,0,0,0,0,0,0,0,0,0,0,0,0,0,0,0,0,0,0,0,0,0,0],"sum_hessian":[9.184448E3,2.856103E3,6.328345E3,2.02746E3,8.2864307E2,5.6019204E3,7.2642444E2,5.9085767E2,1.4366023E3,3.0432492E2,5.243182E2,4.677408E3,9.245123E2,1.8665987E2,5.397646E2,2.3533737E2,3.5552032E2,1.3064902E3,1.3011201E2,8.371503E1,2.206099E2,9.411135E1,4.302068E2,3.2627146E3,1.4146937E3,1.4124487E2,7.8326746E2,8.7667404E1,9.8992455E1,4.6496838E2,7.4796196E1,2.3342894E2,1.9084332E0,8.93887E1,2.6613162E2,1.26296E3,4.3530212E1,5.982438E0,1.2412958E2,2.1693901E2,3.670884E0,2.5757113E1,6.835424E1,3.9484793E2,3.5358883E1,2.22639E3,1.0363245E3,3.3341373E2,1.08128E3,8.239333E1,5.8851543E1,5.803526E2,2.029149E2,2.0073158E1,6.7594246E1,8.046001E1,1.8532448E1,4.67632E1,4.182052E2,2.0256612E0,7.277053E1,2.100298E2,2.3399132E1,7.96063E1,9.782404E0,2.3049394E2,3.563767E1,9.055914E2,3.5736865E2,4.0391937E1,3.1382754E0,4.681794E0,1.3006442E0,4.5773167E1,7.835641E1,2.782049E0,2.1415697E2,8.203901E0,1.7553211E1,6.3199417E1,5.154821E0,3.111849E2,8.366301E1,3.1994062E1,3.364819E0,1.9535925E3,2.7279742E2,7.2532733E2,3.1099722E2,5.048638E1,2.8292734E2,3.9987384E2,6.814061E2,2.1449219E1,6.0944115E1,3.0836578E1,2.8014965E1,1.4306703E2,4.3728555E2,1.8020277E2,2.271213E1,1.1220186E0,1.895114E1,8.877614E0,5.8716637E1,1.2793161E1,6.766685E1,3.1934931E0,1.5338955E1,1.7646E1,2.9117199E1,2.0471445E2,2.1349075E2],"tree_param":{"num_deleted":"0","num_feature":"7","num_nodes":"113","size_leaf_vector":"1"}},{"base_weights":[4.41747E-9,-2.071818E-1,8.947636E-2,-3.1676367E-1,5.4468006E-2,4.0868644E-2,2.4348736E-1,-4.6725547E-1,-1.4147395E-1,-3.0621484E-1,2.6854312E-1,6.5086787E-3,3.088066E-1,1.788524E-1,3.3988068E-1,-7.621151E-1,-3.964351E-1,-3.87501E-1,-8.040484E-2,-3.604748E-2,-1.5011153E-1,2.3395255E-1,3.5257164E-1,6.0671993E-2,-1.3434388E-1,-2.3082764E-1,4.222584E-1,-1.2472818E-2,2.1807094E-1,4.4656575E-1,2.5506443E-1,-3.820574E-2,-9.394507E-3,-5.1288325E-1,-2.3110469E-1,-3.7496366E-2,-1.8591303E-1,-6.0425233E-2,-3.6507543E-2,-6.0210876E-2,-2.6028818E-1,1.5787183E-1,2.5923932E-1,4.164618E-1,2.9139167E-1,3.1144515E-1,2.9593235E-2,-4.5535967E-1,-4.5481183E-2,3.8554132E-2,-3.8842675E-1,3.767368E-1,4.7551697E-1,-3.7061617E-2,1.6411358E-1,1.90267E-1,2.6552562E-2,6.6707087E-1,3.6334836E-1,1.8005116E-1,4.5260006E-1,-9.644033E-3,-3.318734E-2,-8.722898E-3,-3.8081374E-2,-1.3474447E-2,4.905344E-3,2.2848659E-4,-1.0777174E-2,-2.3323331E-2,-2.2869927E-3,-2.3516076E-2,-1.2164353E-2,1.1291772E-2,6.189625E-3,1.4229036E-2,9.3135005E-3,5.515355E-3,2.1082258E-2,2.289348E-2,1.3539289E-2,8.817534E-3,3.4752276E-2,-1.0439074E-2,2.395846E-3,-3.189675E-2,-1.2152727E-2,-1.434203E-2,5.3177117E-3,1.1197052E-2,-1.8434076E-2,-1.1113417E-2,-3.109296E-2,1.7168695E-2,2.1059392E-2,1.6041694E-2,2.4568573E-2,1.3805007E-2,3.8795564E-3,9.154285E-3,2.7734658E-2,1.9533807E-2,3.837317E-2,1.6846266E-2,2.7688343E-2,7.70382E-3,3.3091273E-2,-3.5888895E-3,2.3106387E-2],"categories":[],"categories_nodes":[],"categories_segments":[],"categories_sizes":[],"default_left":[0,0,0,0,0,0,0,0,0,0,0,0,0,0,0,0,0,0,0,0,0,0,0,0,0,0,0,0,0,0,0,0,0,0,0,0,0,0,0,0,0,0,0,0,0,0,0,0,0,0,0,0,0,0,0,0,0,0,0,0,0,0,0,0,0,0,0,0,0,0,0,0,0,0,0,0,0,0,0,0,0,0,0,0,0,0,0,0,0,0,0,0,0,0,0,0,0,0,0,0,0,0,0,0,0,0,0,0,0],"id":15,"left_children":[1,3,5,7,9,11,13,15,17,19,21,23,25,27,29,31,33,35,37,-1,39,41,43,45,47,49,51,53,55,57,59,-1,-1,61,63,-1,65,67,-1,69,71,73,75,77,79,81,83,85,87,89,91,93,95,-1,97,99,-1,101,103,105,107,-1,-1,-1,-1,-1,-1,-1,-1,-1,-1,-1,-1,-1,-1,-1,-1,-1,-1,-1,-1,-1,-1,-1,-1,-1,-1,-1,-1,-1,-1,-1,-1,-1,-1,-1,-1,-1,-1,-1,-1,-1,-1,-1,-1,-1,-1,-1,-1],"loss_changes":[1.6982236E2,7.923928E1,4.7884727E1,5.1310364E1,6.3123703E1,4.4779285E1,9.500427E0,2.157138E1,1.350757E1,1.9609884E1,1.4082832E0,3.290707E1,3.3944553E1,6.911543E0,5.449791E0,8.8127136E-2,1.6182495E1,1.2933413E1,9.343829E0,0E0,2.1885958E0,6.637745E-1,4.5555305E-1,2.4270702E1,3.4154068E1,4.11973E0,9.292145E-1,2.0400097E1,6.548828E0,4.7303085E0,5.028761E0,0E0,0E0,2.3815842E1,1.0437399E1,0E0,2.7872596E0,7.085396E0,0E0,7.067598E-1,2.4156332E-1,1.8960738E-1,4.5248413E-1,6.4362526E-2,1.4607668E-1,1.7673702E1,1.2121799E1,9.90826E0,3.445616E1,2.8454766E0,